{"learner":{"attributes":{},"feature_names":["day_of_week","hour_of_day"],"feature_types":[],"gradient_booster":{"model":{"cats":{"enc":[],"feature_segments":[],"sorted_idx":[]},"gbtree_model_param":{"num_parallel_tree":"1","num_trees":"50"},"iteration_indptr":[0,1,2,3,4,5,6,7,8,9,10,11,12,13,14,15,16,17,18,19,20,21,22,23,24,25,26,27,28,29,30,31,32,33,34,35,36,37,38,39,40,41,42,43,44,45,46,47,48,49,50],"tree_info":[0,0,0,0,0,0,0,0,0,0,0,0,0,0,0,0,0,0,0,0,0,0,0,0,0,0,0,0,0,0,0,0,0,0,0,0,0,0,0,0,0,0,0,0,0,0,0,0,0,0],"trees":[{"base_weights":[1.3637936E-7,-1.011941E1,1.3877205E0,-1.0714062E1,-6.5768385E0,3.021389E0,-6.890256E0,-1.1757053E0,-8.934991E-1,-1.8107398E-1,-9.184432E-1,-1.1598555E0,3.6055913E0,-4.793451E0,-8.038092E0,2.3146828E-1,-7.084376E-1,4.499447E-1,-6.623805E-2,-6.2462723E-1,-2.8404063E-1,-9.980871E-1,-6.508979E-1],"categories":[],"categories_nodes":[],"categories_segments":[],"categories_sizes":[],"default_left":[0,0,0,0,0,0,0,0,0,0,0,0,0,0,0,0,0,0,0,0,0,0,0],"id":0,"left_children":[1,3,5,7,9,11,13,-1,-1,-1,-1,15,17,19,21,-1,-1,-1,-1,-1,-1,-1,-1],"loss_changes":[5.461288E4,9.1752734E2,4.6271086E4,6.371719E2,8.53333E2,6.982959E3,1.3188984E3,0E0,0E0,0E0,0E0,7.241723E3,9.567057E3,5.5541846E2,1.0134082E3,0E0,0E0,0E0,0E0,0E0,0E0,0E0,0E0],"parents":[2147483647,0,0,1,1,2,2,3,3,4,4,5,5,6,6,11,11,12,12,13,13,14,14],"right_children":[2,4,6,8,10,12,14,-1,-1,-1,-1,16,18,20,22,-1,-1,-1,-1,-1,-1,-1,-1],"split_conditions":[4E0,3E0,2.1E1,5E0,2E0,7E0,2.2E1,-1.1757053E0,-8.934991E-1,-1.8107398E-1,-9.184432E-1,5E0,1.9E1,4E0,4E0,2.3146828E-1,-7.084376E-1,4.499447E-1,-6.623805E-2,-6.2462723E-1,-2.8404063E-1,-9.980871E-1,-6.508979E-1],"split_indices":[1,1,1,0,0,1,1,0,0,0,0,0,1,0,0,0,0,0,0,0,0,0,0],"split_type":[0,0,0,0,0,0,0,0,0,0,0,0,0,0,0,0,0,0,0,0,0,0,0],"sum_hessian":[3.887E3,4.68E2,3.419E3,3.99E2,6.9E1,2.856E3,5.63E2,2.48E2,1.51E2,2.5E1,4.4E1,3.5E2,2.506E3,2.01E2,3.62E2,2.21E2,1.29E2,2.072E3,4.34E2,1.14E2,8.7E1,1.57E2,2.05E2],"tree_param":{"num_deleted":"0","num_feature":"2","num_nodes":"23","size_leaf_vector":"1"}},{"base_weights":[-1.4964725E-3,-9.114225E0,1.2481735E0,-9.647828E0,-5.9348617E0,2.7192178E0,-6.2057652E0,-1.058607E0,-8.0473703E-1,-1.6366301E-1,-8.286399E-1,-1.0452287E0,3.2451856E0,-4.318604E0,-7.2388253E0,2.0842572E-1,-6.381387E-1,4.0497193E-1,-5.962944E-2,-5.6270766E-1,-2.5595936E-1,-8.9891016E-1,-5.861241E-1],"categories":[],"categories_nodes":[],"categories_segments":[],"categories_sizes":[],"default_left":[0,0,0,0,0,0,0,0,0,0,0,0,0,0,0,0,0,0,0,0,0,0,0],"id":1,"left_children":[1,3,5,7,9,11,13,-1,-1,-1,-1,15,17,19,21,-1,-1,-1,-1,-1,-1,-1,-1],"loss_changes":[4.4287543E4,7.3841406E2,3.7517426E4,5.154531E2,6.939597E2,5.6601875E3,1.0682852E3,0E0,0E0,0E0,0E0,5.8748013E3,7.7505527E3,4.5052344E2,8.225625E2,0E0,0E0,0E0,0E0,0E0,0E0,0E0,0E0],"parents":[2147483647,0,0,1,1,2,2,3,3,4,4,5,5,6,6,11,11,12,12,13,13,14,14],"right_children":[2,4,6,8,10,12,14,-1,-1,-1,-1,16,18,20,22,-1,-1,-1,-1,-1,-1,-1,-1],"split_conditions":[4E0,3E0,2.1E1,5E0,2E0,7E0,2.2E1,-1.058607E0,-8.0473703E-1,-1.6366301E-1,-8.286399E-1,5E0,1.9E1,4E0,4E0,2.0842572E-1,-6.381387E-1,4.0497193E-1,-5.962944E-2,-5.6270766E-1,-2.5595936E-1,-8.9891016E-1,-5.861241E-1],"split_indices":[1,1,1,0,0,1,1,0,0,0,0,0,1,0,0,0,0,0,0,0,0,0,0],"split_type":[0,0,0,0,0,0,0,0,0,0,0,0,0,0,0,0,0,0,0,0,0,0,0],"sum_hessian":[3.887E3,4.68E2,3.419E3,3.99E2,6.9E1,2.856E3,5.63E2,2.48E2,1.51E2,2.5E1,4.4E1,3.5E2,2.506E3,2.01E2,3.62E2,2.21E2,1.29E2,2.072E3,4.34E2,1.14E2,8.7E1,1.57E2,2.05E2],"tree_param":{"num_deleted":"0","num_feature":"2","num_nodes":"23","size_leaf_vector":"1"}},{"base_weights":[-2.6955109E-3,-8.208892E0,1.1226579E0,-8.687704E0,-5.3555512E0,2.4472663E0,-5.589273E0,-9.531714E-1,-7.2479266E-1,-1.479262E-1,-7.476173E-1,-9.4192994E-1,2.9208047E0,-5.0678434E0,-9.027001E0,1.8767706E-1,-5.7481575E-1,3.644943E-1,-5.36802E-2,-6.846008E-1,-2.8564018E-1,-6.979043E-1,-9.887654E-1],"categories":[],"categories_nodes":[],"categories_segments":[],"categories_sizes":[],"default_left":[0,0,0,0,0,0,0,0,0,0,0,0,0,0,0,0,0,0,0,0,0,0,0],"id":2,"left_children":[1,3,5,7,9,11,13,-1,-1,-1,-1,15,17,19,21,-1,-1,-1,-1,-1,-1,-1,-1],"loss_changes":[3.5914395E4,5.942246E2,3.0419805E4,4.169922E2,5.643507E2,4.58799E3,9.652422E2,0E0,0E0,0E0,0E0,4.7658955E3,6.2789434E3,1.9151406E3,5.966211E1,0E0,0E0,0E0,0E0,0E0,0E0,0E0,0E0],"parents":[2147483647,0,0,1,1,2,2,3,3,4,4,5,5,6,6,11,11,12,12,13,13,14,14],"right_children":[2,4,6,8,10,12,14,-1,-1,-1,-1,16,18,20,22,-1,-1,-1,-1,-1,-1,-1,-1],"split_conditions":[4E0,3E0,2.1E1,5E0,2E0,7E0,7E0,-9.531714E-1,-7.2479266E-1,-1.479262E-1,-7.476173E-1,5E0,1.9E1,4E0,2.2E1,1.8767706E-1,-5.7481575E-1,3.644943E-1,-5.36802E-2,-6.846008E-1,-2.8564018E-1,-6.979043E-1,-9.887654E-1],"split_indices":[1,1,1,0,0,1,0,0,0,0,0,0,1,0,1,0,0,0,0,0,0,0,0],"split_type":[0,0,0,0,0,0,0,0,0,0,0,0,0,0,0,0,0,0,0,0,0,0,0],"sum_hessian":[3.887E3,4.68E2,3.419E3,3.99E2,6.9E1,2.856E3,5.63E2,2.48E2,1.51E2,2.5E1,4.4E1,3.5E2,2.506E3,4.91E2,7.2E1,2.21E2,1.29E2,2.072E3,4.34E2,2.71E2,2.2E2,2.4E1,4.8E1],"tree_param":{"num_deleted":"0","num_feature":"2","num_nodes":"23","size_leaf_vector":"1"}},{"base_weights":[-3.7908775E-3,-7.3934894E0,1.0095929E0,-7.823128E0,-4.832789E0,2.202513E0,-5.0350566E0,-8.5823697E-1,-6.5279025E-1,-1.337025E-1,-6.7451686E-1,-8.488401E-1,2.628848E0,-3.3324325E0,-5.968652E0,1.6899386E-1,-5.1777637E-1,3.2806242E-1,-4.8324503E-2,-4.390614E-1,-1.9117127E-1,-7.415612E-1,-4.8298737E-1],"categories":[],"categories_nodes":[],"categories_segments":[],"categories_sizes":[],"default_left":[0,0,0,0,0,0,0,0,0,0,0,0,0,0,0,0,0,0,0,0,0,0,0],"id":3,"left_children":[1,3,5,7,9,11,13,-1,-1,-1,-1,15,17,19,21,-1,-1,-1,-1,-1,-1,-1,-1],"loss_changes":[2.9123143E4,4.7817383E2,2.4671969E4,3.3733203E2,4.589474E2,3.7189014E3,8.76624E2,0E0,0E0,0E0,0E0,3.8663022E3,5.086754E3,2.9528906E2,5.6232227E2,0E0,0E0,0E0,0E0,0E0,0E0,0E0,0E0],"parents":[2147483647,0,0,1,1,2,2,3,3,4,4,5,5,6,6,11,11,12,12,13,13,14,14],"right_children":[2,4,6,8,10,12,14,-1,-1,-1,-1,16,18,20,22,-1,-1,-1,-1,-1,-1,-1,-1],"split_conditions":[4E0,3E0,2.1E1,5E0,2E0,7E0,2.2E1,-8.5823697E-1,-6.5279025E-1,-1.337025E-1,-6.7451686E-1,5E0,1.9E1,4E0,4E0,1.6899386E-1,-5.1777637E-1,3.2806242E-1,-4.8324503E-2,-4.390614E-1,-1.9117127E-1,-7.415612E-1,-4.8298737E-1],"split_indices":[1,1,1,0,0,1,1,0,0,0,0,0,1,0,0,0,0,0,0,0,0,0,0],"split_type":[0,0,0,0,0,0,0,0,0,0,0,0,0,0,0,0,0,0,0,0,0,0,0],"sum_hessian":[3.887E3,4.68E2,3.419E3,3.99E2,6.9E1,2.856E3,5.63E2,2.48E2,1.51E2,2.5E1,4.4E1,3.5E2,2.506E3,2.01E2,3.62E2,2.21E2,1.29E2,2.072E3,4.34E2,1.14E2,8.7E1,1.57E2,2.05E2],"tree_param":{"num_deleted":"0","num_feature":"2","num_nodes":"23","size_leaf_vector":"1"}},{"base_weights":[-4.5030867E-3,-6.6590853E0,9.0807104E-1,-7.044593E0,-4.3610563E0,1.9822376E0,-4.5348396E0,-7.7275795E-1,-5.8794075E-1,-1.2084651E-1,-6.0856414E-1,-1.3428134E0,2.3114226E0,-4.0460577E0,-7.7669744E0,4.199211E-2,-4.999191E-1,3.0046472E-1,9.272973E-3,-5.551872E-1,-2.1744397E-1,-6.1255294E-1,-8.445937E-1],"categories":[],"categories_nodes":[],"categories_segments":[],"categories_sizes":[],"default_left":[0,0,0,0,0,0,0,0,0,0,0,0,0,0,0,0,0,0,0,0,0,0,0],"id":4,"left_children":[1,3,5,7,9,11,13,-1,-1,-1,-1,15,17,19,21,-1,-1,-1,-1,-1,-1,-1,-1],"loss_changes":[2.3617094E4,3.8476758E2,2.0004336E4,2.7288672E2,3.732295E2,3.130252E3,8.5958594E2,0E0,0E0,0E0,0E0,1.6649668E3,3.9986592E3,1.3745361E3,2.9621582E1,0E0,0E0,0E0,0E0,0E0,0E0,0E0,0E0],"parents":[2147483647,0,0,1,1,2,2,3,3,4,4,5,5,6,6,11,11,12,12,13,13,14,14],"right_children":[2,4,6,8,10,12,14,-1,-1,-1,-1,16,18,20,22,-1,-1,-1,-1,-1,-1,-1,-1],"split_conditions":[4E0,3E0,2.1E1,5E0,2E0,6E0,7E0,-7.7275795E-1,-5.8794075E-1,-1.2084651E-1,-6.0856414E-1,5E0,1.8E1,4E0,2.2E1,4.199211E-2,-4.999191E-1,3.0046472E-1,9.272973E-3,-5.551872E-1,-2.1744397E-1,-6.1255294E-1,-8.445937E-1],"split_indices":[1,1,1,0,0,1,0,0,0,0,0,0,1,0,1,0,0,0,0,0,0,0,0],"split_type":[0,0,0,0,0,0,0,0,0,0,0,0,0,0,0,0,0,0,0,0,0,0,0],"sum_hessian":[3.887E3,4.68E2,3.419E3,3.99E2,6.9E1,2.856E3,5.63E2,2.48E2,1.51E2,2.5E1,4.4E1,2.57E2,2.599E3,4.91E2,7.2E1,1.74E2,8.3E1,1.98E3,6.19E2,2.71E2,2.2E2,2.4E1,4.8E1],"tree_param":{"num_deleted":"0","num_feature":"2","num_nodes":"23","size_leaf_vector":"1"}},{"base_weights":[-5.2018333E-3,-5.9976335E0,8.165688E-1,-6.3435354E0,-3.9353707E0,1.783962E0,-4.085309E0,-6.957925E-1,-5.2953345E-1,-1.0922664E-1,-5.4906005E-1,-7.4716234E-1,2.137628E0,-2.5483904E0,-4.92931E0,1.425181E-1,-4.451109E-1,2.6783872E-1,-4.442827E-2,-2.1142577E-1,-5.537479E-1,-6.5300435E-1,-4.179658E-1],"categories":[],"categories_nodes":[],"categories_segments":[],"categories_sizes":[],"default_left":[0,0,0,0,0,0,0,0,0,0,0,0,0,0,0,0,0,0,0,0,0,0,0],"id":5,"left_children":[1,3,5,7,9,11,13,-1,-1,-1,-1,15,17,19,21,-1,-1,-1,-1,-1,-1,-1,-1],"loss_changes":[1.915098E4,3.095918E2,1.6225077E4,2.2075586E2,3.035205E2,2.5591064E3,7.1903613E2,0E0,0E0,0E0,0E0,2.8305752E3,3.5014424E3,2.5041992E2,4.083047E2,0E0,0E0,0E0,0E0,0E0,0E0,0E0,0E0],"parents":[2147483647,0,0,1,1,2,2,3,3,4,4,5,5,6,6,11,11,12,12,13,13,14,14],"right_children":[2,4,6,8,10,12,14,-1,-1,-1,-1,16,18,20,22,-1,-1,-1,-1,-1,-1,-1,-1],"split_conditions":[4E0,3E0,2.1E1,5E0,2E0,7E0,2.2E1,-6.957925E-1,-5.2953345E-1,-1.0922664E-1,-5.4906005E-1,5E0,1.9E1,6E0,3E0,1.425181E-1,-4.451109E-1,2.6783872E-1,-4.442827E-2,-2.1142577E-1,-5.537479E-1,-6.5300435E-1,-4.179658E-1],"split_indices":[1,1,1,0,0,1,1,0,0,0,0,0,1,0,0,0,0,0,0,0,0,0,0],"split_type":[0,0,0,0,0,0,0,0,0,0,0,0,0,0,0,0,0,0,0,0,0,0,0],"sum_hessian":[3.887E3,4.68E2,3.419E3,3.99E2,6.9E1,2.856E3,5.63E2,2.48E2,1.51E2,2.5E1,4.4E1,3.5E2,2.506E3,2.01E2,3.62E2,2.21E2,1.29E2,2.072E3,4.34E2,1.77E2,2.4E1,1.13E2,2.49E2],"tree_param":{"num_deleted":"0","num_feature":"2","num_nodes":"23","size_leaf_vector":"1"}},{"base_weights":[-5.658593E-3,-5.4018865E0,7.343521E-1,-5.7122455E0,-3.551238E0,1.6055384E0,-3.6800334E0,-6.264927E-1,-4.7692847E-1,-9.872412E-2,-4.953742E-1,-1.1632291E0,1.8796678E0,-3.2462275E0,-6.5533566E0,2.3646528E-2,-4.065411E-1,2.4561596E-1,3.465204E-3,-4.5712167E-1,-1.6007826E-1,-5.005881E-1,-7.2091436E-1],"categories":[],"categories_nodes":[],"categories_segments":[],"categories_sizes":[],"default_left":[0,0,0,0,0,0,0,0,0,0,0,0,0,0,0,0,0,0,0,0,0,0,0],"id":6,"left_children":[1,3,5,7,9,11,13,-1,-1,-1,-1,15,17,19,21,-1,-1,-1,-1,-1,-1,-1,-1],"loss_changes":[1.5529786E4,2.490918E2,1.3158381E4,1.7858301E2,2.4683057E2,2.1706519E3,6.8173193E2,0E0,0E0,0E0,0E0,1.0490007E3,2.7653682E3,1.0653398E3,3.799341E1,0E0,0E0,0E0,0E0,0E0,0E0,0E0,0E0],"parents":[2147483647,0,0,1,1,2,2,3,3,4,4,5,5,6,6,11,11,12,12,13,13,14,14],"right_children":[2,4,6,8,10,12,14,-1,-1,-1,-1,16,18,20,22,-1,-1,-1,-1,-1,-1,-1,-1],"split_conditions":[4E0,3E0,2.1E1,5E0,2E0,6E0,7E0,-6.264927E-1,-4.7692847E-1,-9.872412E-2,-4.953742E-1,5E0,1.8E1,4E0,2.2E1,2.3646528E-2,-4.065411E-1,2.4561596E-1,3.465204E-3,-4.5712167E-1,-1.6007826E-1,-5.005881E-1,-7.2091436E-1],"split_indices":[1,1,1,0,0,1,0,0,0,0,0,0,1,0,1,0,0,0,0,0,0,0,0],"split_type":[0,0,0,0,0,0,0,0,0,0,0,0,0,0,0,0,0,0,0,0,0,0,0],"sum_hessian":[3.887E3,4.68E2,3.419E3,3.99E2,6.9E1,2.856E3,5.63E2,2.48E2,1.51E2,2.5E1,4.4E1,2.57E2,2.599E3,4.91E2,7.2E1,1.74E2,8.3E1,1.98E3,6.19E2,2.71E2,2.2E2,2.4E1,4.8E1],"tree_param":{"num_deleted":"0","num_feature":"2","num_nodes":"23","size_leaf_vector":"1"}},{"base_weights":[-6.037205E-3,-4.8653173E0,6.6033953E-1,-5.1437793E0,-3.2046015E0,1.444937E0,-3.3152905E0,-5.6409507E0,-4.2954937E-1,-8.9231394E-2,-4.4693765E-1,-1.0483903E0,1.6917961E0,-1.9299583E0,-4.0770583E0,-5.8476967E-1,-5.016864E-1,2.1295397E-2,-3.66371E-1,2.1117984E-1,-4.0341467E-2,-1.5545994E-1,-4.5253158E-1,-3.6867556E-1,-6.5029424E-1],"categories":[],"categories_nodes":[],"categories_segments":[],"categories_sizes":[],"default_left":[0,0,0,0,0,0,0,0,0,0,0,0,0,0,0,0,0,0,0,0,0,0,0,0,0],"id":7,"left_children":[1,3,5,7,9,11,13,15,-1,-1,-1,17,19,21,23,-1,-1,-1,-1,-1,-1,-1,-1,-1,-1],"loss_changes":[1.2592989E4,2.004043E2,1.0672689E4,1.444668E2,2.0072864E2,1.7602583E3,5.873218E2,2.790039E0,0E0,0E0,0E0,8.5187537E2,2.288834E3,1.8975153E2,3.197246E2,0E0,0E0,0E0,0E0,0E0,0E0,0E0,0E0,0E0,0E0],"parents":[2147483647,0,0,1,1,2,2,3,3,4,4,5,5,6,6,7,7,11,11,12,12,13,13,14,14],"right_children":[2,4,6,8,10,12,14,16,-1,-1,-1,18,20,22,24,-1,-1,-1,-1,-1,-1,-1,-1,-1,-1],"split_conditions":[4E0,3E0,2.1E1,5E0,2E0,6E0,2.2E1,2E0,-4.2954937E-1,-8.9231394E-2,-4.4693765E-1,5E0,1.9E1,6E0,7E0,-5.8476967E-1,-5.016864E-1,2.1295397E-2,-3.66371E-1,2.1117984E-1,-4.0341467E-2,-1.5545994E-1,-4.5253158E-1,-3.6867556E-1,-6.5029424E-1],"split_indices":[1,1,1,0,0,1,1,1,0,0,0,0,1,0,0,0,0,0,0,0,0,0,0,0,0],"split_type":[0,0,0,0,0,0,0,0,0,0,0,0,0,0,0,0,0,0,0,0,0,0,0,0,0],"sum_hessian":[3.887E3,4.68E2,3.419E3,3.99E2,6.9E1,2.856E3,5.63E2,2.48E2,1.51E2,2.5E1,4.4E1,2.57E2,2.599E3,2.01E2,3.62E2,1.8E2,6.8E1,1.74E2,8.3E1,2.165E3,4.34E2,1.77E2,2.4E1,3.14E2,4.8E1],"tree_param":{"num_deleted":"0","num_feature":"2","num_nodes":"25","size_leaf_vector":"1"}},{"base_weights":[-6.4245574E-3,-4.383161E0,5.937789E-1,-4.6331916E0,-2.8918009E0,1.3003824E0,-2.986646E0,-5.0812187E0,-3.8687703E-1,-8.065143E-2,-4.032371E-1,-6.3384974E-1,1.5706716E0,-1.739972E0,-3.67216E0,-5.266158E-1,-4.5224482E-1,1.1513715E-1,-3.6775824E-1,2.0868087E-1,-3.5823253E-4,-2.5881687E-1,-6.1176088E-2,-5.0642145E-1,-3.0226943E-1],"categories":[],"categories_nodes":[],"categories_segments":[],"categories_sizes":[],"default_left":[0,0,0,0,0,0,0,0,0,0,0,0,0,0,0,0,0,0,0,0,0,0,0,0,0],"id":8,"left_children":[1,3,5,7,9,11,13,15,-1,-1,-1,17,19,21,23,-1,-1,-1,-1,-1,-1,-1,-1,-1,-1],"loss_changes":[1.0216117E4,1.6148438E2,8.656281E3,1.1733496E2,1.6323688E2,1.4946411E3,4.7561133E2,1.9155273E0,0E0,0E0,0E0,1.9114755E3,2.0370215E3,1.9171954E2,3.1287793E2,0E0,0E0,0E0,0E0,0E0,0E0,0E0,0E0,0E0,0E0],"parents":[2147483647,0,0,1,1,2,2,3,3,4,4,5,5,6,6,7,7,11,11,12,12,13,13,14,14],"right_children":[2,4,6,8,10,12,14,16,-1,-1,-1,18,20,22,24,-1,-1,-1,-1,-1,-1,-1,-1,-1,-1],"split_conditions":[4E0,3E0,2.1E1,5E0,2E0,7E0,2.2E1,2E0,-3.8687703E-1,-8.065143E-2,-4.032371E-1,5E0,1.8E1,4E0,3E0,-5.266158E-1,-4.5224482E-1,1.1513715E-1,-3.6775824E-1,2.0868087E-1,-3.5823253E-4,-2.5881687E-1,-6.1176088E-2,-5.0642145E-1,-3.0226943E-1],"split_indices":[1,1,1,0,0,1,1,1,0,0,0,0,1,0,0,0,0,0,0,0,0,0,0,0,0],"split_type":[0,0,0,0,0,0,0,0,0,0,0,0,0,0,0,0,0,0,0,0,0,0,0,0,0],"sum_hessian":[3.887E3,4.68E2,3.419E3,3.99E2,6.9E1,2.856E3,5.63E2,2.48E2,1.51E2,2.5E1,4.4E1,3.5E2,2.506E3,2.01E2,3.62E2,1.8E2,6.8E1,2.21E2,1.29E2,1.887E3,6.19E2,1.14E2,8.7E1,1.13E2,2.49E2],"tree_param":{"num_deleted":"0","num_feature":"2","num_nodes":"25","size_leaf_vector":"1"}},{"base_weights":[-6.55963E-3,-3.948789E0,5.34058E-1,-4.173287E0,-2.6095335E0,1.1703285E0,-2.6899827E0,-4.5770283E0,-3.4844384E-1,-7.28965E-2,-3.6380944E-1,1.7579178E0,3.3617452E-1,-2.3240352E0,-5.1195207E0,-4.7424516E-1,-4.076758E-1,2.2727363E-1,-1.06745176E-1,-3.0902195E-1,1.1449821E-1,-3.470058E-1,-9.030291E-2,-4.0321562E-1,-5.5698186E-1],"categories":[],"categories_nodes":[],"categories_segments":[],"categories_sizes":[],"default_left":[0,0,0,0,0,0,0,0,0,0,0,0,0,0,0,0,0,0,0,0,0,0,0,0,0],"id":9,"left_children":[1,3,5,7,9,11,13,15,-1,-1,-1,17,19,21,23,-1,-1,-1,-1,-1,-1,-1,-1,-1,-1],"loss_changes":[8.288364E3,1.3011914E2,7.0188066E3,9.529834E1,1.3274756E2,1.3997388E3,4.8954517E2,1.2724609E0,0E0,0E0,0E0,2.4402559E3,3.2792068E3,7.980913E2,1.3285156E1,0E0,0E0,0E0,0E0,0E0,0E0,0E0,0E0,0E0,0E0],"parents":[2147483647,0,0,1,1,2,2,3,3,4,4,5,5,6,6,7,7,11,11,12,12,13,13,14,14],"right_children":[2,4,6,8,10,12,14,16,-1,-1,-1,18,20,22,24,-1,-1,-1,-1,-1,-1,-1,-1,-1,-1],"split_conditions":[4E0,3E0,2.1E1,5E0,2E0,5E0,7E0,2E0,-3.4844384E-1,-7.28965E-2,-3.6380944E-1,1.9E1,9E0,4E0,2.2E1,-4.7424516E-1,-4.076758E-1,2.2727363E-1,-1.06745176E-1,-3.0902195E-1,1.1449821E-1,-3.470058E-1,-9.030291E-2,-4.0321562E-1,-5.5698186E-1],"split_indices":[1,1,1,0,0,0,0,1,0,0,0,1,1,0,1,0,0,0,0,0,0,0,0,0,0],"split_type":[0,0,0,0,0,0,0,0,0,0,0,0,0,0,0,0,0,0,0,0,0,0,0,0,0],"sum_hessian":[3.887E3,4.68E2,3.419E3,3.99E2,6.9E1,2.856E3,5.63E2,2.48E2,1.51E2,2.5E1,4.4E1,1.675E3,1.181E3,4.91E2,7.2E1,1.8E2,6.8E1,1.417E3,2.58E2,2.25E2,9.56E2,2.71E2,2.2E2,2.4E1,4.8E1],"tree_param":{"num_deleted":"0","num_feature":"2","num_nodes":"25","size_leaf_vector":"1"}},{"base_weights":[-6.71104E-3,-3.5574646E0,4.8022175E-1,-3.759034E0,-2.3548186E0,1.0532696E0,-2.4234624E0,-4.122867E0,-3.1382868E0,-6.5887176E-2,-3.2823697E-1,-9.5809335E-1,1.2524536E0,-2.0925207E0,-4.620722E0,-4.270827E-1,-3.6749905E-1,-2.4986188E-1,-3.221756E-1,-1.4867413E-2,-2.6329777E-1,1.659691E-1,-5.075575E-3,-3.1243283E-1,-8.131351E-2,-3.6450693E-1,-5.0242037E-1],"categories":[],"categories_nodes":[],"categories_segments":[],"categories_sizes":[],"default_left":[0,0,0,0,0,0,0,0,0,0,0,0,0,0,0,0,0,0,0,0,0,0,0,0,0,0,0],"id":10,"left_children":[1,3,5,7,9,11,13,15,17,-1,-1,19,21,23,25,-1,-1,-1,-1,-1,-1,-1,-1,-1,-1,-1,-1],"loss_changes":[6.7239756E3,1.048418E2,5.6932607E3,7.740088E1,1.0795273E2,1.1458037E3,4.004524E2,8.051758E-1,6.57959E-2,0E0,0E0,3.493749E2,1.3799443E3,6.469385E2,1.0423584E1,0E0,0E0,0E0,0E0,0E0,0E0,0E0,0E0,0E0,0E0,0E0,0E0],"parents":[2147483647,0,0,1,1,2,2,3,3,4,4,5,5,6,6,7,7,8,8,11,11,12,12,13,13,14,14],"right_children":[2,4,6,8,10,12,14,16,18,-1,-1,20,22,24,26,-1,-1,-1,-1,-1,-1,-1,-1,-1,-1,-1,-1],"split_conditions":[4E0,3E0,2.1E1,5E0,2E0,6E0,7E0,2E0,1E0,-6.5887176E-2,-3.2823697E-1,5E0,1.8E1,4E0,2.2E1,-4.270827E-1,-3.6749905E-1,-2.4986188E-1,-3.221756E-1,-1.4867413E-2,-2.6329777E-1,1.659691E-1,-5.075575E-3,-3.1243283E-1,-8.131351E-2,-3.6450693E-1,-5.0242037E-1],"split_indices":[1,1,1,0,0,1,0,1,1,0,0,0,1,0,1,0,0,0,0,0,0,0,0,0,0,0,0],"split_type":[0,0,0,0,0,0,0,0,0,0,0,0,0,0,0,0,0,0,0,0,0,0,0,0,0,0,0],"sum_hessian":[3.887E3,4.68E2,3.419E3,3.99E2,6.9E1,2.856E3,5.63E2,2.48E2,1.51E2,2.5E1,4.4E1,2.57E2,2.599E3,4.91E2,7.2E1,1.8E2,6.8E1,2.1E1,1.3E2,1.74E2,8.3E1,1.98E3,6.19E2,2.71E2,2.2E2,2.4E1,4.8E1],"tree_param":{"num_deleted":"0","num_feature":"2","num_nodes":"27","size_leaf_vector":"1"}},{"base_weights":[-6.8476084E-3,-3.2054725E0,4.3179622E-1,-3.386547E0,-2.1249669E0,1.1788625E0,-1.3824055E0,-3.7137718E0,-2.8282216E-1,-5.9551846E-2,-2.9614267E-1,1.9187269E0,1.3481997E-1,-2.9221659E0,-6.242509E-1,-3.8461038E-1,-3.3128175E-1,-1.338915E-2,2.2059372E-1,-2.7901492E-1,9.810533E-2,-2.3880295E-1,-3.9085808E-1,3.69003E-2,-2.2943933E-1],"categories":[],"categories_nodes":[],"categories_segments":[],"categories_sizes":[],"default_left":[0,0,0,0,0,0,0,0,0,0,0,0,0,0,0,0,0,0,0,0,0,0,0,0,0],"id":11,"left_children":[1,3,5,7,9,11,13,15,-1,-1,-1,17,19,21,23,-1,-1,-1,-1,-1,-1,-1,-1,-1,-1],"loss_changes":[5.4564697E3,8.456445E1,4.6368545E3,6.257617E1,8.778897E1,1.871388E3,1.1632179E3,4.699707E-1,0E0,0E0,0E0,8.362529E2,2.4927947E3,1.6400952E2,1.1122932E3,0E0,0E0,0E0,0E0,0E0,0E0,0E0,0E0,0E0,0E0],"parents":[2147483647,0,0,1,1,2,2,3,3,4,4,5,5,6,6,7,7,11,11,12,12,13,13,14,14],"right_children":[2,4,6,8,10,12,14,16,-1,-1,-1,18,20,22,24,-1,-1,-1,-1,-1,-1,-1,-1,-1,-1],"split_conditions":[4E0,3E0,1.9E1,5E0,2E0,5E0,3E0,2E0,-2.8282216E-1,-5.9551846E-2,-2.9614267E-1,5E0,9E0,2.2E1,2.2E1,-3.8461038E-1,-3.3128175E-1,-1.338915E-2,2.2059372E-1,-2.7901492E-1,9.810533E-2,-2.3880295E-1,-3.9085808E-1,3.69003E-2,-2.2943933E-1],"split_indices":[1,1,1,0,0,0,0,1,0,0,0,1,1,1,1,0,0,0,0,0,0,0,0,0,0],"split_type":[0,0,0,0,0,0,0,0,0,0,0,0,0,0,0,0,0,0,0,0,0,0,0,0,0],"sum_hessian":[3.887E3,4.68E2,3.419E3,3.99E2,6.9E1,2.422E3,9.97E2,2.48E2,1.51E2,2.5E1,4.4E1,1.417E3,1.005E3,3.28E2,6.69E2,1.8E2,6.8E1,1.74E2,1.243E3,2.25E2,7.8E2,2.15E2,1.13E2,4.2E2,2.49E2],"tree_param":{"num_deleted":"0","num_feature":"2","num_nodes":"25","size_leaf_vector":"1"}},{"base_weights":[-6.7159585E-3,-2.887813E0,3.8838384E-1,-3.0503893E0,-1.9175515E0,8.5429245E-1,-1.9724128E0,-3.34527E0,-2.5472603E0,-5.3825673E-2,-2.671865E-1,1.328122E0,1.8170992E-1,-1.6628454E0,-4.0317932E-1,-3.4636185E-1,-2.9863372E-1,-1.9901478E-1,-2.6213762E-1,1.7269999E-1,-8.608242E-2,-2.904361E-1,7.389925E-2,-2.536777E-1,-5.797134E-2],"categories":[],"categories_nodes":[],"categories_segments":[],"categories_sizes":[],"default_left":[0,0,0,0,0,0,0,0,0,0,0,0,0,0,0,0,0,0,0,0,0,0,0,0,0],"id":12,"left_children":[1,3,5,7,9,11,13,15,17,-1,-1,19,21,23,-1,-1,-1,-1,-1,-1,-1,-1,-1,-1,-1],"loss_changes":[4.4269136E3,6.813135E1,3.7633958E3,5.082422E1,7.13913E1,9.102544E2,3.5285522E2,2.3364258E-1,1.0592041E0,0E0,0E0,1.4648398E3,2.0349656E3,4.642483E2,0E0,0E0,0E0,0E0,0E0,0E0,0E0,0E0,0E0,0E0,0E0],"parents":[2147483647,0,0,1,1,2,2,3,3,4,4,5,5,6,6,7,7,8,8,11,11,12,12,13,13],"right_children":[2,4,6,8,10,12,14,16,18,-1,-1,20,22,24,-1,-1,-1,-1,-1,-1,-1,-1,-1,-1,-1],"split_conditions":[4E0,3E0,2.1E1,5E0,2E0,5E0,7E0,2E0,1E0,-5.3825673E-2,-2.671865E-1,1.9E1,8E0,4E0,-4.0317932E-1,-3.4636185E-1,-2.9863372E-1,-1.9901478E-1,-2.6213762E-1,1.7269999E-1,-8.608242E-2,-2.904361E-1,7.389925E-2,-2.536777E-1,-5.797134E-2],"split_indices":[1,1,1,0,0,0,0,1,1,0,0,1,1,0,0,0,0,0,0,0,0,0,0,0,0],"split_type":[0,0,0,0,0,0,0,0,0,0,0,0,0,0,0,0,0,0,0,0,0,0,0,0,0],"sum_hessian":[3.887E3,4.68E2,3.419E3,3.99E2,6.9E1,2.856E3,5.63E2,2.48E2,1.51E2,2.5E1,4.4E1,1.675E3,1.181E3,4.91E2,7.2E1,1.8E2,6.8E1,2.1E1,1.3E2,1.417E3,2.58E2,1.8E2,1.001E3,2.71E2,2.2E2],"tree_param":{"num_deleted":"0","num_feature":"2","num_nodes":"25","size_leaf_vector":"1"}},{"base_weights":[-6.628825E-3,-2.6020749E0,3.4929833E-1,-2.748116E0,-1.7303822E0,9.5640403E-1,-1.1250167E0,-3.0133333E0,-2.2955682E0,-4.8650157E-2,-2.410616E-1,1.554421E0,1.1252283E-1,-2.4421232E0,-4.7657928E-1,-2.7885318E-1,-3.179613E-1,-1.8001793E-1,-2.36124E-1,-2.922914E-2,1.8129581E-1,-2.2957626E-1,8.092706E-2,-1.9940412E-1,-3.2696983E-1,3.7421357E-2,-1.9074081E-1],"categories":[],"categories_nodes":[],"categories_segments":[],"categories_sizes":[],"default_left":[0,0,0,0,0,0,0,0,0,0,0,0,0,0,0,0,0,0,0,0,0,0,0,0,0,0,0],"id":13,"left_children":[1,3,5,7,9,11,13,15,17,-1,-1,19,21,23,25,-1,-1,-1,-1,-1,-1,-1,-1,-1,-1,-1,-1],"loss_changes":[3.5926035E3,5.4949707E1,3.0621982E3,4.1092285E1,5.8056305E1,1.2226047E3,8.511891E2,4.411621E-1,6.9433594E-1,0E0,0E0,6.775449E2,1.6898931E3,1.15480225E2,8.163308E2,0E0,0E0,0E0,0E0,0E0,0E0,0E0,0E0,0E0,0E0,0E0,0E0],"parents":[2147483647,0,0,1,1,2,2,3,3,4,4,5,5,6,6,7,7,8,8,11,11,12,12,13,13,14,14],"right_children":[2,4,6,8,10,12,14,16,18,-1,-1,20,22,24,26,-1,-1,-1,-1,-1,-1,-1,-1,-1,-1,-1,-1],"split_conditions":[4E0,3E0,1.9E1,5E0,2E0,5E0,3E0,2E0,1E0,-4.8650157E-2,-2.410616E-1,5E0,9E0,2.2E1,2.2E1,-2.7885318E-1,-3.179613E-1,-1.8001793E-1,-2.36124E-1,-2.922914E-2,1.8129581E-1,-2.2957626E-1,8.092706E-2,-1.9940412E-1,-3.2696983E-1,3.7421357E-2,-1.9074081E-1],"split_indices":[1,1,1,0,0,0,0,0,1,0,0,1,1,1,1,0,0,0,0,0,0,0,0,0,0,0,0],"split_type":[0,0,0,0,0,0,0,0,0,0,0,0,0,0,0,0,0,0,0,0,0,0,0,0,0,0,0],"sum_hessian":[3.887E3,4.68E2,3.419E3,3.99E2,6.9E1,2.422E3,9.97E2,2.48E2,1.51E2,2.5E1,4.4E1,1.417E3,1.005E3,3.28E2,6.69E2,1.13E2,1.35E2,2.1E1,1.3E2,1.74E2,1.243E3,2.25E2,7.8E2,2.15E2,1.13E2,4.2E2,2.49E2],"tree_param":{"num_deleted":"0","num_feature":"2","num_nodes":"27","size_leaf_vector":"1"}},{"base_weights":[-6.4748307E-3,-2.344645E0,3.1417087E-1,-2.4758368E0,-1.5614828E0,7.8951615E-1,-1.220954E0,-2.714397E0,-2.0687492E0,-4.3972295E-2,-2.174911E-1,1.2529885E0,1.1724083E-1,-4.9797788E-1,-2.1078668E0,-2.812689E-1,-2.4172194E-1,-1.628344E-1,-2.1269183E-1,9.0870805E-2,2.2504981E-1,-2.0672023E-1,7.034248E-2,-1.440783E-1,4.386599E-2,-1.8495464E-1,-3.7254807E-1],"categories":[],"categories_nodes":[],"categories_segments":[],"categories_sizes":[],"default_left":[0,0,0,0,0,0,0,0,0,0,0,0,0,0,0,0,0,0,0,0,0,0,0,0,0,0,0],"id":14,"left_children":[1,3,5,7,9,11,13,15,17,-1,-1,19,21,23,25,-1,-1,-1,-1,-1,-1,-1,-1,-1,-1,-1,-1],"loss_changes":[2.9156643E3,4.4321045E1,2.496587E3,3.3230713E1,4.721199E1,8.137025E2,5.176946E2,4.744873E-1,4.3060303E-1,0E0,0E0,5.2888696E2,1.3677322E3,3.9536288E2,1.4479382E2,0E0,0E0,0E0,0E0,0E0,0E0,0E0,0E0,0E0,0E0,0E0,0E0],"parents":[2147483647,0,0,1,1,2,2,3,3,4,4,5,5,6,6,7,7,8,8,11,11,12,12,13,13,14,14],"right_children":[2,4,6,8,10,12,14,16,18,-1,-1,20,22,24,26,-1,-1,-1,-1,-1,-1,-1,-1,-1,-1,-1,-1],"split_conditions":[4E0,3E0,2E1,5E0,2E0,5E0,2.2E1,2E0,1E0,-4.3972295E-2,-2.174911E-1,4E0,9E0,4E0,7E0,-2.812689E-1,-2.4172194E-1,-1.628344E-1,-2.1269183E-1,9.0870805E-2,2.2504981E-1,-2.0672023E-1,7.034248E-2,-1.440783E-1,4.386599E-2,-1.8495464E-1,-3.7254807E-1],"split_indices":[1,1,1,0,0,0,1,1,1,0,0,0,1,0,0,0,0,0,0,0,0,0,0,0,0,0,0],"split_type":[0,0,0,0,0,0,0,0,0,0,0,0,0,0,0,0,0,0,0,0,0,0,0,0,0,0,0],"sum_hessian":[3.887E3,4.68E2,3.419E3,3.99E2,6.9E1,2.611E3,8.08E2,2.48E2,1.51E2,2.5E1,4.4E1,1.545E3,1.066E3,4.46E2,3.62E2,1.8E2,6.8E1,2.1E1,1.3E2,1.15E3,3.95E2,2.25E2,8.41E2,2.22E2,2.24E2,3.14E2,4.8E1],"tree_param":{"num_deleted":"0","num_feature":"2","num_nodes":"27","size_leaf_vector":"1"}},{"base_weights":[-6.248572E-3,-2.1126537E0,2.8261408E-1,-2.2304993E0,-1.4090698E0,7.847374E-1,-9.367521E-1,-2.4450574E0,-1.864345E0,-3.9744217E-2,-1.9622532E-1,1.2750667E0,9.281718E-2,-2.0868216E0,-3.706184E-1,-2.2569123E-1,-2.5847888E-1,-1.4729114E-1,-1.9158503E-1,-3.88084E-2,1.5080059E-1,-2.1816435E-1,5.9110355E-2,-2.6459908E-1,-1.4648978E-1,1.2905598E-2,-2.3335241E-1],"categories":[],"categories_nodes":[],"categories_segments":[],"categories_sizes":[],"default_left":[0,0,0,0,0,0,0,0,0,0,0,0,0,0,0,0,0,0,0,0,0,0,0,0,0,0,0],"id":15,"left_children":[1,3,5,7,9,11,13,15,17,-1,-1,19,21,23,25,-1,-1,-1,-1,-1,-1,-1,-1,-1,-1,-1,-1],"loss_changes":[2.3662964E3,3.5743896E1,2.0947058E3,2.6866089E1,3.839319E1,8.2193005E2,6.4901733E2,7.125244E-1,2.4261475E-1,0E0,0E0,5.4993677E2,1.1414224E3,1.1053723E2,6.5744635E2,0E0,0E0,0E0,0E0,0E0,0E0,0E0,0E0,0E0,0E0,0E0,0E0],"parents":[2147483647,0,0,1,1,2,2,3,3,4,4,5,5,6,6,7,7,8,8,11,11,12,12,13,13,14,14],"right_children":[2,4,6,8,10,12,14,16,18,-1,-1,20,22,24,26,-1,-1,-1,-1,-1,-1,-1,-1,-1,-1,-1,-1],"split_conditions":[4E0,3E0,1.9E1,5E0,2E0,5E0,3E0,2E0,1E0,-3.9744217E-2,-1.9622532E-1,5E0,8E0,2E0,7E0,-2.2569123E-1,-2.5847888E-1,-1.4729114E-1,-1.9158503E-1,-3.88084E-2,1.5080059E-1,-2.1816435E-1,5.9110355E-2,-2.6459908E-1,-1.4648978E-1,1.2905598E-2,-2.3335241E-1],"split_indices":[1,1,1,0,0,0,0,0,1,0,0,1,1,0,0,0,0,0,0,0,0,0,0,0,0,0,0],"split_type":[0,0,0,0,0,0,0,0,0,0,0,0,0,0,0,0,0,0,0,0,0,0,0,0,0,0,0],"sum_hessian":[3.887E3,4.68E2,3.419E3,3.99E2,6.9E1,2.422E3,9.97E2,2.48E2,1.51E2,2.5E1,4.4E1,1.417E3,1.005E3,3.28E2,6.69E2,1.13E2,1.35E2,2.1E1,1.3E2,1.74E2,1.243E3,1.8E2,8.25E2,1.71E2,1.57E2,5.34E2,1.35E2],"tree_param":{"num_deleted":"0","num_feature":"2","num_nodes":"27","size_leaf_vector":"1"}},{"base_weights":[-6.070711E-3,-1.9036463E0,2.5415415E-1,-2.009507E0,-1.2715338E0,7.726627E-1,-7.2697544E-1,-2.202496E0,-1.6801399E0,-3.592264E-2,-1.7703885E-1,3.600898E-1,1.8535818E0,-1.6643102E0,9.28597E-2,-2.0332006E-1,-2.3282106E-1,-1.3323154E-1,-1.7257278E-1,5.375002E-2,-1.2193277E-1,2.4545477E-1,6.30882E-2,-2.3129638E-1,-1.3091485E-1,1.3670565E-1,-1.1616564E-1],"categories":[],"categories_nodes":[],"categories_segments":[],"categories_sizes":[],"default_left":[0,0,0,0,0,0,0,0,0,0,0,0,0,0,0,0,0,0,0,0,0,0,0,0,0,0,0],"id":16,"left_children":[1,3,5,7,9,11,13,15,17,-1,-1,19,21,23,25,-1,-1,-1,-1,-1,-1,-1,-1,-1,-1,-1,-1],"loss_changes":[1.920364E3,2.882837E1,1.7403981E3,2.172522E1,3.1221642E1,9.973866E2,9.092428E2,5.656738E-1,1.10961914E-1,0E0,0E0,4.5486792E2,4.5255835E2,1.24140015E2,1.0118402E3,0E0,0E0,0E0,0E0,0E0,0E0,0E0,0E0,0E0,0E0,0E0,0E0],"parents":[2147483647,0,0,1,1,2,2,3,3,4,4,5,5,6,6,7,7,8,8,11,11,12,12,13,13,14,14],"right_children":[2,4,6,8,10,12,14,16,18,-1,-1,20,22,24,26,-1,-1,-1,-1,-1,-1,-1,-1,-1,-1,-1,-1],"split_conditions":[4E0,3E0,1.8E1,5E0,2E0,1.5E1,4E0,2E0,1E0,-3.592264E-2,-1.7703885E-1,7E0,1.7E1,2E0,6E0,-2.0332006E-1,-2.3282106E-1,-1.3323154E-1,-1.7257278E-1,5.375002E-2,-1.2193277E-1,2.4545477E-1,6.30882E-2,-2.3129638E-1,-1.3091485E-1,1.3670565E-1,-1.1616564E-1],"split_indices":[1,1,1,0,0,1,0,0,1,0,0,0,1,0,0,0,0,0,0,0,0,0,0,0,0,0,0],"split_type":[0,0,0,0,0,0,0,0,0,0,0,0,0,0,0,0,0,0,0,0,0,0,0,0,0,0,0],"sum_hessian":[3.887E3,4.68E2,3.419E3,3.99E2,6.9E1,2.237E3,1.182E3,2.48E2,1.51E2,2.5E1,4.4E1,1.62E3,6.17E2,5.51E2,6.31E2,1.13E2,1.35E2,2.1E1,1.3E2,1.457E3,1.63E2,4.13E2,2.04E2,1.93E2,3.58E2,3.13E2,3.18E2],"tree_param":{"num_deleted":"0","num_feature":"2","num_nodes":"27","size_leaf_vector":"1"}},{"base_weights":[-5.735009E-3,-1.3409121E0,3.0072856E-1,-1.8104112E0,-7.625006E-1,8.7105346E-1,-6.5456676E-1,-1.9839981E0,-1.5141379E0,-4.5136282E-1,-1.9860702E0,1.4219317E0,1.7596614E-1,-1.4985355E0,8.3606176E-2,-2.0598744E-1,-1.7562068E-1,-1.2051397E-1,-1.5544723E-1,-1.2980534E-1,1.8948644E-2,-1.5972841E-1,-2.6910385E-1,1.02383986E-1,2.2777477E-1,-2.6397738E-1,5.2951302E-2,-1.2021928E-1,-2.2299078E-1,1.23078644E-1,-1.0458553E-1],"categories":[],"categories_nodes":[],"categories_segments":[],"categories_sizes":[],"default_left":[0,0,0,0,0,0,0,0,0,0,0,0,0,0,0,0,0,0,0,0,0,0,0,0,0,0,0,0,0,0,0],"id":17,"left_children":[1,3,5,7,9,11,13,15,17,19,21,23,25,27,29,-1,-1,-1,-1,-1,-1,-1,-1,-1,-1,-1,-1,-1,-1,-1,-1],"loss_changes":[1.5913071E3,1.957749E2,1.7238634E3,1.7567505E1,1.2359206E2,7.582916E2,7.371282E2,6.861572E-1,2.1057129E-2,1.4240744E2,1.3791046E1,3.7413403E2,8.744478E2,1.1695813E2,8.2016693E2,0E0,0E0,0E0,0E0,0E0,0E0,0E0,0E0,0E0,0E0,0E0,0E0,0E0,0E0,0E0,0E0],"parents":[2147483647,0,0,1,1,2,2,3,3,4,4,5,5,6,6,7,7,8,8,9,9,10,10,11,11,12,12,13,13,14,14],"right_children":[2,4,6,8,10,12,14,16,18,20,22,24,26,28,30,-1,-1,-1,-1,-1,-1,-1,-1,-1,-1,-1,-1,-1,-1,-1,-1],"split_conditions":[6E0,3E0,1.8E1,5E0,7E0,5E0,4E0,2E0,1E0,3E0,4E0,1.4E1,8E0,2.2E1,6E0,-2.0598744E-1,-1.7562068E-1,-1.2051397E-1,-1.5544723E-1,-1.2980534E-1,1.8948644E-2,-1.5972841E-1,-2.6910385E-1,1.02383986E-1,2.2777477E-1,-2.6397738E-1,5.2951302E-2,-1.2021928E-1,-2.2299078E-1,1.23078644E-1,-1.0458553E-1],"split_indices":[1,1,1,0,0,0,0,1,1,0,1,1,1,1,0,0,0,0,0,0,0,0,0,0,0,0,0,0,0,0,0],"split_type":[0,0,0,0,0,0,0,0,0,0,0,0,0,0,0,0,0,0,0,0,0,0,0,0,0,0,0,0,0,0,0],"sum_hessian":[3.887E3,7.25E2,3.162E3,3.99E2,3.26E2,1.98E3,1.182E3,2.48E2,1.51E2,2.61E2,6.5E1,1.104E3,8.76E2,5.51E2,6.31E2,1.8E2,6.8E1,2.1E1,1.3E2,1.12E2,1.49E2,4.4E1,2.1E1,7.55E2,3.49E2,9.7E1,7.79E2,3.94E2,1.57E2,3.13E2,3.18E2],"tree_param":{"num_deleted":"0","num_feature":"2","num_nodes":"31","size_leaf_vector":"1"}},{"base_weights":[-5.5225566E-3,-1.20847E0,2.7059042E-1,-1.6310141E0,-6.879008E-1,5.1660407E-1,-1.6284586E0,-1.7871308E0,-1.3645397E-1,-4.0664947E-1,-1.7939606E0,7.8400767E-1,-1.2924635E-1,-1.4230515E0,-2.9156995E-1,-1.645597E-1,-1.8926287E-1,-1.1693964E-1,1.7066425E-2,-1.4411052E-1,-2.4341667E-1,1.2800367E-1,1.5812846E-2,-1.0822777E-1,7.5266615E-2,-2.0083283E-1,-8.287682E-2],"categories":[],"categories_nodes":[],"categories_segments":[],"categories_sizes":[],"default_left":[0,0,0,0,0,0,0,0,0,0,0,0,0,0,0,0,0,0,0,0,0,0,0,0,0,0,0],"id":18,"left_children":[1,3,5,7,9,11,13,15,-1,17,19,21,23,25,-1,-1,-1,-1,-1,-1,-1,-1,-1,-1,-1,-1,-1],"loss_changes":[1.2917239E3,1.5857153E2,1.4785695E3,1.4201782E1,1.009939E2,4.838416E2,9.1831116E1,6.034546E-1,0E0,1.1556978E2,1.140152E1,6.148076E2,6.9085706E2,1.07898926E2,0E0,0E0,0E0,0E0,0E0,0E0,0E0,0E0,0E0,0E0,0E0,0E0,0E0],"parents":[2147483647,0,0,1,1,2,2,3,3,4,4,5,5,6,6,7,7,9,9,10,10,11,11,12,12,13,13],"right_children":[2,4,6,8,10,12,14,16,-1,18,20,22,24,26,-1,-1,-1,-1,-1,-1,-1,-1,-1,-1,-1,-1,-1],"split_conditions":[6E0,3E0,2.2E1,5E0,7E0,1.8E1,7E0,2E0,-1.3645397E-1,3E0,4E0,5E0,4E0,4E0,-2.9156995E-1,-1.645597E-1,-1.8926287E-1,-1.1693964E-1,1.7066425E-2,-1.4411052E-1,-2.4341667E-1,1.2800367E-1,1.5812846E-2,-1.0822777E-1,7.5266615E-2,-2.0083283E-1,-8.287682E-2],"split_indices":[1,1,1,0,0,1,0,0,0,0,1,0,0,0,0,0,0,0,0,0,0,0,0,0,0,0,0],"split_type":[0,0,0,0,0,0,0,0,0,0,0,0,0,0,0,0,0,0,0,0,0,0,0,0,0,0,0],"sum_hessian":[3.887E3,7.25E2,3.162E3,3.99E2,3.26E2,2.8E3,3.62E2,2.48E2,1.51E2,2.61E2,6.5E1,1.98E3,8.2E2,3.14E2,4.8E1,1.13E2,1.35E2,1.12E2,1.49E2,4.4E1,2.1E1,1.104E3,8.76E2,3.94E2,4.26E2,1.57E2,1.57E2],"tree_param":{"num_deleted":"0","num_feature":"2","num_nodes":"27","size_leaf_vector":"1"}},{"base_weights":[-5.3411163E-3,-1.0889696E0,2.4338464E-1,-1.4691384E0,-6.206011E-1,4.6498334E-1,-1.4671974E0,-1.6098388E0,-1.2289834E0,-3.6636567E-1,-1.6204358E0,5.998672E-1,-5.8266294E-1,-1.2816468E0,-2.6300803E-1,-1.6729495E-1,-1.4209569E-1,-9.59852E-2,-1.2647995E-1,-1.7469777E-2,-2.3504499E-1,-1.3001968E-1,-2.2018142E-1,8.759563E-2,1.0589019E-2,-3.3436057E-1,-9.508814E-3,-1.8087664E-1,-7.464155E-2],"categories":[],"categories_nodes":[],"categories_segments":[],"categories_sizes":[],"default_left":[0,0,0,0,0,0,0,0,0,0,0,0,0,0,0,0,0,0,0,0,0,0,0,0,0,0,0,0,0],"id":19,"left_children":[1,3,5,7,9,11,13,15,17,19,21,23,25,27,-1,-1,-1,-1,-1,-1,-1,-1,-1,-1,-1,-1,-1,-1,-1],"loss_changes":[1.0481833E3,1.2835901E2,1.1996577E3,1.1537537E1,8.252759E1,3.9616046E2,7.495502E1,5.910034E-1,2.5115967E-1,9.9224106E1,9.425095E0,3.3840643E2,4.304552E2,8.752112E1,0E0,0E0,0E0,0E0,0E0,0E0,0E0,0E0,0E0,0E0,0E0,0E0,0E0,0E0,0E0],"parents":[2147483647,0,0,1,1,2,2,3,3,4,4,5,5,6,6,7,7,8,8,9,9,10,10,11,11,12,12,13,13],"right_children":[2,4,6,8,10,12,14,16,18,20,22,24,26,28,-1,-1,-1,-1,-1,-1,-1,-1,-1,-1,-1,-1,-1,-1,-1],"split_conditions":[6E0,3E0,2.2E1,5E0,7E0,7E0,7E0,2E0,1E0,5E0,4E0,1.7E1,9E0,4E0,-2.6300803E-1,-1.6729495E-1,-1.4209569E-1,-9.59852E-2,-1.2647995E-1,-1.7469777E-2,-2.3504499E-1,-1.3001968E-1,-2.2018142E-1,8.759563E-2,1.0589019E-2,-3.3436057E-1,-9.508814E-3,-1.8087664E-1,-7.464155E-2],"split_indices":[1,1,1,0,0,0,0,1,1,1,1,1,1,0,0,0,0,0,0,0,0,0,0,0,0,0,0,0,0],"split_type":[0,0,0,0,0,0,0,0,0,0,0,0,0,0,0,0,0,0,0,0,0,0,0,0,0,0,0,0,0],"sum_hessian":[3.887E3,7.25E2,3.162E3,3.99E2,3.26E2,2.8E3,3.62E2,2.48E2,1.51E2,2.61E2,6.5E1,2.481E3,3.19E2,3.14E2,4.8E1,1.8E2,6.8E1,2.1E1,1.3E2,2.39E2,2.2E1,4.4E1,2.1E1,1.591E3,8.9E2,4.7E1,2.72E2,1.57E2,1.57E2],"tree_param":{"num_deleted":"0","num_feature":"2","num_nodes":"29","size_leaf_vector":"1"}},{"base_weights":[-5.295198E-3,-9.816354E-1,2.1880479E-1,-1.323554E0,-5.6038433E-1,4.8018008E-1,-9.8650473E-1,-1.4500973E0,-1.1075485E0,-3.306931E-1,-1.4636984E0,7.337291E-1,1.3321844E-1,-7.6000136E-1,-2.4995618E-1,-1.3316846E-1,-1.5386926E-1,-9.410538E-2,-1.1586087E-1,-1.0361769E-1,2.02976E-2,-1.1730664E-1,-1.991641E-1,1.0726469E-1,-2.0907955E-2,-2.3732021E-1,3.7822444E-2,-5.7967524E-3,-1.1542934E-1],"categories":[],"categories_nodes":[],"categories_segments":[],"categories_sizes":[],"default_left":[0,0,0,0,0,0,0,0,0,0,0,0,0,0,0,0,0,0,0,0,0,0,0,0,0,0,0,0,0],"id":20,"left_children":[1,3,5,7,9,11,13,15,17,19,21,23,25,27,-1,-1,-1,-1,-1,-1,-1,-1,-1,-1,-1,-1,-1,-1,-1],"loss_changes":[8.5090076E2,1.0382666E2,9.9693933E2,9.327576E0,6.7363014E1,2.286289E2,1.9139014E2,5.631714E-1,2.0185852E-1,9.885199E1,7.7905273E0,4.8016534E2,6.757804E2,1.3612183E2,0E0,0E0,0E0,0E0,0E0,0E0,0E0,0E0,0E0,0E0,0E0,0E0,0E0,0E0,0E0],"parents":[2147483647,0,0,1,1,2,2,3,3,4,4,5,5,6,6,7,7,8,8,9,9,10,10,11,11,12,12,13,13],"right_children":[2,4,6,8,10,12,14,16,18,20,22,24,26,28,-1,-1,-1,-1,-1,-1,-1,-1,-1,-1,-1,-1,-1,-1,-1],"split_conditions":[6E0,3E0,2.1E1,5E0,7E0,5E0,7E0,2E0,6E0,3E0,4E0,1.8E1,8E0,2.2E1,-2.4995618E-1,-1.3316846E-1,-1.5386926E-1,-9.410538E-2,-1.1586087E-1,-1.0361769E-1,2.02976E-2,-1.1730664E-1,-1.991641E-1,1.0726469E-1,-2.0907955E-2,-2.3732021E-1,3.7822444E-2,-5.7967524E-3,-1.1542934E-1],"split_indices":[1,1,1,0,0,0,0,0,0,0,1,1,1,1,0,0,0,0,0,0,0,0,0,0,0,0,0,0,0],"split_type":[0,0,0,0,0,0,0,0,0,0,0,0,0,0,0,0,0,0,0,0,0,0,0,0,0,0,0,0,0],"sum_hessian":[3.887E3,7.25E2,3.162E3,3.99E2,3.26E2,2.599E3,5.63E2,2.48E2,1.51E2,2.61E2,6.5E1,1.501E3,1.098E3,4.91E2,7.2E1,1.13E2,1.35E2,4E1,1.11E2,1.12E2,1.49E2,4.4E1,2.1E1,1.104E3,3.97E2,9.7E1,1.001E3,1.77E2,3.14E2],"tree_param":{"num_deleted":"0","num_feature":"2","num_nodes":"29","size_leaf_vector":"1"}},{"base_weights":[-5.1211957E-3,-8.847072E-1,1.9677086E-1,-1.1924412E0,-5.055687E-1,4.3211818E-1,-8.885125E-1,-1.3062404E0,-9.98175E-1,-3.8027886E-1,-2.1450391E-1,5.335006E-1,-3.5882294E-1,-6.8424773E-1,-2.2530296E-1,-1.3587062E-1,-1.1496818E-1,-7.784018E-2,-1.0274638E-1,-1.1968708E-2,-1.3221236E-1,-1.5968246E-2,6.7869455E-2,-2.9099426E-1,1.3440022E-2,-4.4720683E-2,-1.7099993E-1],"categories":[],"categories_nodes":[],"categories_segments":[],"categories_sizes":[],"default_left":[0,0,0,0,0,0,0,0,0,0,0,0,0,0,0,0,0,0,0,0,0,0,0,0,0,0,0],"id":21,"left_children":[1,3,5,7,9,11,13,15,17,19,-1,21,23,25,-1,-1,-1,-1,-1,-1,-1,-1,-1,-1,-1,-1,-1],"loss_changes":[6.9061066E2,8.4102356E1,8.0827264E2,7.5390625E0,6.635302E1,2.0867892E2,1.5565802E2,4.8321533E-1,1.7861938E-1,7.470004E1,0E0,2.3209747E2,3.7283942E2,1.1886264E2,0E0,0E0,0E0,0E0,0E0,0E0,0E0,0E0,0E0,0E0,0E0,0E0,0E0],"parents":[2147483647,0,0,1,1,2,2,3,3,4,4,5,5,6,6,7,7,8,8,9,9,11,11,12,12,13,13],"right_children":[2,4,6,8,10,12,14,16,18,20,-1,22,24,26,-1,-1,-1,-1,-1,-1,-1,-1,-1,-1,-1,-1,-1],"split_conditions":[6E0,3E0,2.1E1,5E0,5E0,7E0,7E0,2E0,1E0,7E0,-2.1450391E-1,2E0,9E0,2.3E1,-2.2530296E-1,-1.3587062E-1,-1.1496818E-1,-7.784018E-2,-1.0274638E-1,-1.1968708E-2,-1.3221236E-1,-1.5968246E-2,6.7869455E-2,-2.9099426E-1,1.3440022E-2,-4.4720683E-2,-1.7099993E-1],"split_indices":[1,1,1,0,1,0,0,1,1,0,0,0,1,1,0,0,0,0,0,0,0,0,0,0,0,0,0],"split_type":[0,0,0,0,0,0,0,0,0,0,0,0,0,0,0,0,0,0,0,0,0,0,0,0,0,0,0],"sum_hessian":[3.887E3,7.25E2,3.162E3,3.99E2,3.26E2,2.599E3,5.63E2,2.48E2,1.51E2,3.04E2,2.2E1,2.304E3,2.95E2,4.91E2,7.2E1,1.8E2,6.8E1,2.1E1,1.3E2,2.39E2,6.5E1,3.99E2,1.905E3,4.7E1,2.48E2,4E2,9.1E1],"tree_param":{"num_deleted":"0","num_feature":"2","num_nodes":"27","size_leaf_vector":"1"}},{"base_weights":[-4.9835932E-3,-7.9732484E-1,1.7688322E-1,-1.0742756E0,-4.561088E-1,5.385971E-1,-4.2897657E-1,-1.1766238E0,-8.995455E-1,-3.4272382E-1,-1.9398616E-1,2.1159679E-1,1.2594545E0,-1.1210911E0,1.7620735E-1,-1.07747376E-1,-1.2510833E-1,-7.617601E-2,-9.419531E-2,-1.0776833E-2,-1.1919147E-1,5.544403E-2,-2.1434946E-2,1.7756933E-1,2.107601E-2,-1.6319181E-1,-8.419226E-2,1.1239692E-1,-7.572516E-2],"categories":[],"categories_nodes":[],"categories_segments":[],"categories_sizes":[],"default_left":[0,0,0,0,0,0,0,0,0,0,0,0,0,0,0,0,0,0,0,0,0,0,0,0,0,0,0,0,0],"id":22,"left_children":[1,3,5,7,9,11,13,15,17,19,-1,21,23,25,27,-1,-1,-1,-1,-1,-1,-1,-1,-1,-1,-1,-1,-1,-1],"loss_changes":[5.6040405E2,6.8117004E1,6.933959E2,6.094879E0,5.4348106E1,4.6669598E2,4.957049E2,4.902954E-1,1.7062378E-1,6.0725773E1,0E0,1.9930771E2,3.3419672E2,7.734503E1,5.599795E2,0E0,0E0,0E0,0E0,0E0,0E0,0E0,0E0,0E0,0E0,0E0,0E0,0E0,0E0],"parents":[2147483647,0,0,1,1,2,2,3,3,4,4,5,5,6,6,7,7,8,8,9,9,11,11,12,12,13,13,14,14],"right_children":[2,4,6,8,10,12,14,16,18,20,-1,22,24,26,28,-1,-1,-1,-1,-1,-1,-1,-1,-1,-1,-1,-1,-1,-1],"split_conditions":[6E0,3E0,1.8E1,5E0,5E0,1.5E1,4E0,2E0,6E0,7E0,-1.9398616E-1,5E0,1.7E1,2E0,6E0,-1.07747376E-1,-1.2510833E-1,-7.617601E-2,-9.419531E-2,-1.0776833E-2,-1.1919147E-1,5.544403E-2,-2.1434946E-2,1.7756933E-1,2.107601E-2,-1.6319181E-1,-8.419226E-2,1.1239692E-1,-7.572516E-2],"split_indices":[1,1,1,0,1,1,0,0,0,0,0,0,1,0,0,0,0,0,0,0,0,0,0,0,0,0,0,0,0],"split_type":[0,0,0,0,0,0,0,0,0,0,0,0,0,0,0,0,0,0,0,0,0,0,0,0,0,0,0,0,0],"sum_hessian":[3.887E3,7.25E2,3.162E3,3.99E2,3.26E2,1.98E3,1.182E3,2.48E2,1.51E2,3.04E2,2.2E1,1.363E3,6.17E2,5.51E2,6.31E2,1.13E2,1.35E2,4E1,1.11E2,2.39E2,6.5E1,7.55E2,6.08E2,4.13E2,2.04E2,1.93E2,3.58E2,3.13E2,3.18E2],"tree_param":{"num_deleted":"0","num_feature":"2","num_nodes":"29","size_leaf_vector":"1"}},{"base_weights":[-4.666688E-3,-7.18594E-1,1.5920177E-1,-9.678561E-1,-4.1148877E-1,3.1468952E-1,-1.0410197E0,-1.0598966E0,-8.107117E-1,-3.088777E-1,-1.75431E-1,4.1450295E-1,-4.604718E-1,-7.8384453E-1,-1.5818682E0,-9.706716E-2,-1.1268949E-1,-6.87442E-2,-8.485987E-2,-9.1093235E-2,4.522101E-3,-2.077545E-2,5.497986E-2,-2.6040223E-1,-8.1897145E-3,-1.2291002E-1,-2.5820872E-2,-1.4901692E-1,-1.8560459E-1],"categories":[],"categories_nodes":[],"categories_segments":[],"categories_sizes":[],"default_left":[0,0,0,0,0,0,0,0,0,0,0,0,0,0,0,0,0,0,0,0,0,0,0,0,0,0,0,0,0],"id":23,"left_children":[1,3,5,7,9,11,13,15,17,19,-1,21,23,25,27,-1,-1,-1,-1,-1,-1,-1,-1,-1,-1,-1,-1,-1,-1],"loss_changes":[4.5497217E2,5.517679E1,5.9060583E2,4.9262085E0,4.45149E1,2.1690851E2,4.9250732E1,3.9468384E-1,1.2653351E-1,6.506316E1,0E0,2.0907059E2,2.5946478E2,5.772516E1,1.5066528E-1,0E0,0E0,0E0,0E0,0E0,0E0,0E0,0E0,0E0,0E0,0E0,0E0,0E0,0E0],"parents":[2147483647,0,0,1,1,2,2,3,3,4,4,5,5,6,6,7,7,8,8,9,9,11,11,12,12,13,13,14,14],"right_children":[2,4,6,8,10,12,14,16,18,20,-1,22,24,26,28,-1,-1,-1,-1,-1,-1,-1,-1,-1,-1,-1,-1,-1,-1],"split_conditions":[6E0,3E0,2.2E1,5E0,5E0,7E0,2.3E1,2E0,6E0,3E0,-1.75431E-1,2E0,9E0,4E0,7E0,-9.706716E-2,-1.1268949E-1,-6.87442E-2,-8.485987E-2,-9.1093235E-2,4.522101E-3,-2.077545E-2,5.497986E-2,-2.6040223E-1,-8.1897145E-3,-1.2291002E-1,-2.5820872E-2,-1.4901692E-1,-1.8560459E-1],"split_indices":[1,1,1,0,1,0,1,0,0,0,0,0,1,0,0,0,0,0,0,0,0,0,0,0,0,0,0,0,0],"split_type":[0,0,0,0,0,0,0,0,0,0,0,0,0,0,0,0,0,0,0,0,0,0,0,0,0,0,0,0,0],"sum_hessian":[3.887E3,7.25E2,3.162E3,3.99E2,3.26E2,2.8E3,3.62E2,2.48E2,1.51E2,3.04E2,2.2E1,2.481E3,3.19E2,2.47E2,1.15E2,1.13E2,1.35E2,4E1,1.11E2,1.12E2,1.92E2,4.43E2,2.038E3,4.7E1,2.72E2,1.33E2,1.14E2,9.1E1,2.4E1],"tree_param":{"num_deleted":"0","num_feature":"2","num_nodes":"29","size_leaf_vector":"1"}},{"base_weights":[-4.545335E-3,-6.475961E-1,1.4305486E-1,-8.719789E-1,-3.7114134E-1,4.5468E-1,-3.788999E-1,-9.5474935E-1,-7.306511E-1,-1.9141357E-1,-1.0789827E0,1.6234137E-1,1.0991707E0,-9.9542516E-1,1.601837E-1,-9.953025E-2,-8.3453394E-2,-5.6576658E-2,-7.527641E-2,-8.2064554E-2,2.8388394E-2,-8.1697136E-2,-1.5658705E-1,4.650047E-2,-2.1364518E-2,1.5621622E-1,1.5879184E-2,-1.22587875E-1,-5.123439E-2,9.890512E-2,-6.561943E-2],"categories":[],"categories_nodes":[],"categories_segments":[],"categories_sizes":[],"default_left":[0,0,0,0,0,0,0,0,0,0,0,0,0,0,0,0,0,0,0,0,0,0,0,0,0,0,0,0,0,0,0],"id":24,"left_children":[1,3,5,7,9,11,13,15,17,19,21,23,25,27,29,-1,-1,-1,-1,-1,-1,-1,-1,-1,-1,-1,-1,-1,-1,-1,-1],"loss_changes":[3.691199E2,4.4711365E1,5.1464764E2,3.9815369E0,4.1393997E1,3.7306076E2,3.933397E2,3.8330078E-1,1.2831879E-1,7.8589935E1,7.140358E0,1.5531892E2,2.688214E2,6.082495E1,4.283039E2,0E0,0E0,0E0,0E0,0E0,0E0,0E0,0E0,0E0,0E0,0E0,0E0,0E0,0E0,0E0,0E0],"parents":[2147483647,0,0,1,1,2,2,3,3,4,4,5,5,6,6,7,7,8,8,9,9,10,10,11,11,12,12,13,13,14,14],"right_children":[2,4,6,8,10,12,14,16,18,20,22,24,26,28,30,-1,-1,-1,-1,-1,-1,-1,-1,-1,-1,-1,-1,-1,-1,-1,-1],"split_conditions":[6E0,3E0,1.8E1,5E0,7E0,1.5E1,4E0,2E0,1E0,3E0,4E0,5E0,1.7E1,3E0,6E0,-9.953025E-2,-8.3453394E-2,-5.6576658E-2,-7.527641E-2,-8.2064554E-2,2.8388394E-2,-8.1697136E-2,-1.5658705E-1,4.650047E-2,-2.1364518E-2,1.5621622E-1,1.5879184E-2,-1.22587875E-1,-5.123439E-2,9.890512E-2,-6.561943E-2],"split_indices":[1,1,1,0,0,1,0,1,1,0,1,0,1,0,0,0,0,0,0,0,0,0,0,0,0,0,0,0,0,0,0],"split_type":[0,0,0,0,0,0,0,0,0,0,0,0,0,0,0,0,0,0,0,0,0,0,0,0,0,0,0,0,0,0,0],"sum_hessian":[3.887E3,7.25E2,3.162E3,3.99E2,3.26E2,1.98E3,1.182E3,2.48E2,1.51E2,2.61E2,6.5E1,1.363E3,6.17E2,5.51E2,6.31E2,1.8E2,6.8E1,2.1E1,1.3E2,1.12E2,1.49E2,4.4E1,2.1E1,7.55E2,6.08E2,4.13E2,2.04E2,3.72E2,1.79E2,3.13E2,3.18E2],"tree_param":{"num_deleted":"0","num_feature":"2","num_nodes":"31","size_leaf_vector":"1"}},{"base_weights":[-4.2324206E-3,8.769508E-2,-8.971584E-1,-5.836723E-1,2.616776E-1,-6.665978E-1,-1.3823469E0,-7.855681E-1,-3.3491993E-1,3.4754562E-1,-4.0515417E-1,-9.046381E-1,-8.356089E-2,-1.3041356E0,-1.6148709E-1,-8.6000934E-2,-6.584535E-2,-2.373922E-2,-1.6136608E-1,1.9540894E-1,3.014814E-2,-2.3281255E-1,-6.5565268E-3,-1.00886405E-1,-5.5880286E-2,7.16462E-2,-1.6482632E-1,-1.5762036E-1,-1.18493214E-1],"categories":[],"categories_nodes":[],"categories_segments":[],"categories_sizes":[],"default_left":[0,0,0,0,0,0,0,0,0,0,0,0,0,0,0,0,0,0,0,0,0,0,0,0,0,0,0,0,0],"id":25,"left_children":[1,3,5,7,9,11,13,15,17,19,21,23,25,27,-1,-1,-1,-1,-1,-1,-1,-1,-1,-1,-1,-1,-1,-1,-1],"loss_changes":[3.1922302E2,4.120113E2,3.968567E1,3.6198105E1,1.605248E2,3.4343407E1,3.5705566E-3,3.2187653E0,4.0397976E1,1.830893E2,2.0881367E2,5.7801666E0,9.256214E1,1.1159973E0,0E0,0E0,0E0,0E0,0E0,0E0,0E0,0E0,0E0,0E0,0E0,0E0,0E0,0E0,0E0],"parents":[2147483647,0,0,1,1,2,2,3,3,4,4,5,5,6,6,7,7,8,8,9,9,10,10,11,11,12,12,13,13],"right_children":[2,4,6,8,10,12,14,16,18,20,22,24,26,28,-1,-1,-1,-1,-1,-1,-1,-1,-1,-1,-1,-1,-1,-1,-1],"split_conditions":[2.2E1,6E0,2.3E1,3E0,7E0,5E0,7E0,5E0,5E0,7E0,9E0,4E0,7E0,2E0,-1.6148709E-1,-8.6000934E-2,-6.584535E-2,-2.373922E-2,-1.6136608E-1,1.9540894E-1,3.014814E-2,-2.3281255E-1,-6.5565268E-3,-1.00886405E-1,-5.5880286E-2,7.16462E-2,-1.6482632E-1,-1.5762036E-1,-1.18493214E-1],"split_indices":[1,1,1,1,0,0,0,0,1,1,1,0,0,0,0,0,0,0,0,0,0,0,0,0,0,0,0,0,0],"split_type":[0,0,0,0,0,0,0,0,0,0,0,0,0,0,0,0,0,0,0,0,0,0,0,0,0,0,0,0,0],"sum_hessian":[3.887E3,3.525E3,3.62E2,7.25E2,2.8E3,2.47E2,1.15E2,3.99E2,3.26E2,2.481E3,3.19E2,1.75E2,7.2E1,9.1E1,2.4E1,2.48E2,1.51E2,3.04E2,2.2E1,6.8E1,2.413E3,4.7E1,2.72E2,1.33E2,4.2E1,4.8E1,2.4E1,2.4E1,6.7E1],"tree_param":{"num_deleted":"0","num_feature":"2","num_nodes":"29","size_leaf_vector":"1"}},{"base_weights":[-4.0759826E-3,7.882637E-2,-8.093366E-1,-5.2576923E-1,2.3550525E-1,-6.0094583E-1,-1.2478846E0,-7.073909E-1,-3.0199417E-1,4.131555E-1,-7.270934E-2,-8.150651E-1,-7.648092E-2,-1.1767234E0,-1.4598432E-1,-7.743538E-2,-5.930412E-2,-1.3727212E-2,-9.5131524E-2,1.19378185E-2,1.3800615E-1,-1.3585758E-1,1.84549E-2,-9.087307E-2,-5.042219E-2,6.462784E-2,-1.49003E-1,-1.4248879E-1,-1.0681816E-1],"categories":[],"categories_nodes":[],"categories_segments":[],"categories_sizes":[],"default_left":[0,0,0,0,0,0,0,0,0,0,0,0,0,0,0,0,0,0,0,0,0,0,0,0,0,0,0,0,0],"id":26,"left_children":[1,3,5,7,9,11,13,15,17,19,21,23,25,27,-1,-1,-1,-1,-1,-1,-1,-1,-1,-1,-1,-1,-1,-1,-1],"loss_changes":[2.5961887E2,3.3413248E2,3.2424423E1,2.929277E1,1.5339711E2,2.7787575E1,3.1829834E-2,2.6036377E0,3.484452E1,5.0460104E2,3.393206E2,4.666092E0,7.554384E1,9.560852E-1,0E0,0E0,0E0,0E0,0E0,0E0,0E0,0E0,0E0,0E0,0E0,0E0,0E0,0E0,0E0],"parents":[2147483647,0,0,1,1,2,2,3,3,4,4,5,5,6,6,7,7,8,8,9,9,10,10,11,11,12,12,13,13],"right_children":[2,4,6,8,10,12,14,16,18,20,22,24,26,28,-1,-1,-1,-1,-1,-1,-1,-1,-1,-1,-1,-1,-1,-1,-1],"split_conditions":[2.2E1,6E0,2.3E1,3E0,1.7E1,5E0,7E0,5E0,7E0,1.5E1,2E0,4E0,7E0,2E0,-1.4598432E-1,-7.743538E-2,-5.930412E-2,-1.3727212E-2,-9.5131524E-2,1.19378185E-2,1.3800615E-1,-1.3585758E-1,1.84549E-2,-9.087307E-2,-5.042219E-2,6.462784E-2,-1.49003E-1,-1.4248879E-1,-1.0681816E-1],"split_indices":[1,1,1,1,1,0,0,0,0,1,0,0,0,0,0,0,0,0,0,0,0,0,0,0,0,0,0,0,0],"split_type":[0,0,0,0,0,0,0,0,0,0,0,0,0,0,0,0,0,0,0,0,0,0,0,0,0,0,0,0,0],"sum_hessian":[3.887E3,3.525E3,3.62E2,7.25E2,2.8E3,2.47E2,1.15E2,3.99E2,3.26E2,1.776E3,1.024E3,1.75E2,7.2E1,9.1E1,2.4E1,2.48E2,1.51E2,2.61E2,6.5E1,1.363E3,4.13E2,1.7E2,8.54E2,1.33E2,4.2E1,4.8E1,2.4E1,2.4E1,6.7E1],"tree_param":{"num_deleted":"0","num_feature":"2","num_nodes":"29","size_leaf_vector":"1"}},{"base_weights":[-3.882982E-3,7.08832E-2,-7.301135E-1,-4.7353056E-1,2.119662E-1,-5.417611E-1,-1.1265038E0,-6.369935E-1,-2.7212775E-1,2.9038814E-1,-3.9695635E-1,-7.3436135E-1,-6.998854E-2,-1.0617608E0,-1.3196981E-1,-6.972293E-2,-5.3412706E-2,-1.8270044E-2,-1.4461802E-1,1.7497468E-1,2.4855463E-2,-2.9082492E-1,-1.7427646E-2,-8.185356E-2,-4.5497276E-2,5.829696E-2,-1.346987E-1,-1.2880987E-1,-9.629342E-2],"categories":[],"categories_nodes":[],"categories_segments":[],"categories_sizes":[],"default_left":[0,0,0,0,0,0,0,0,0,0,0,0,0,0,0,0,0,0,0,0,0,0,0,0,0,0,0,0,0],"id":27,"left_children":[1,3,5,7,9,11,13,15,17,19,21,23,25,27,-1,-1,-1,-1,-1,-1,-1,-1,-1,-1,-1,-1,-1,-1,-1],"loss_changes":[2.1116037E2,2.7092374E2,2.6491669E1,2.3727951E1,1.338711E2,2.2482742E1,4.9713135E-2,2.106079E0,3.406829E1,1.510915E2,1.7844177E2,3.7666397E0,6.1654594E1,8.175278E-1,0E0,0E0,0E0,0E0,0E0,0E0,0E0,0E0,0E0,0E0,0E0,0E0,0E0,0E0,0E0],"parents":[2147483647,0,0,1,1,2,2,3,3,4,4,5,5,6,6,7,7,8,8,9,9,10,10,11,11,12,12,13,13],"right_children":[2,4,6,8,10,12,14,16,18,20,22,24,26,28,-1,-1,-1,-1,-1,-1,-1,-1,-1,-1,-1,-1,-1,-1,-1],"split_conditions":[2.2E1,6E0,2.3E1,3E0,7E0,5E0,7E0,5E0,5E0,7E0,7E0,4E0,7E0,2E0,-1.3196981E-1,-6.972293E-2,-5.3412706E-2,-1.8270044E-2,-1.4461802E-1,1.7497468E-1,2.4855463E-2,-2.9082492E-1,-1.7427646E-2,-8.185356E-2,-4.5497276E-2,5.829696E-2,-1.346987E-1,-1.2880987E-1,-9.629342E-2],"split_indices":[1,1,1,1,0,0,0,0,1,1,1,0,0,0,0,0,0,0,0,0,0,0,0,0,0,0,0,0,0],"split_type":[0,0,0,0,0,0,0,0,0,0,0,0,0,0,0,0,0,0,0,0,0,0,0,0,0,0,0,0,0],"sum_hessian":[3.887E3,3.525E3,3.62E2,7.25E2,2.8E3,2.47E2,1.15E2,3.99E2,3.26E2,2.481E3,3.19E2,1.75E2,7.2E1,9.1E1,2.4E1,2.48E2,1.51E2,3.04E2,2.2E1,6.8E1,2.413E3,2.5E1,2.94E2,1.33E2,4.2E1,4.8E1,2.4E1,2.4E1,6.7E1],"tree_param":{"num_deleted":"0","num_feature":"2","num_nodes":"29","size_leaf_vector":"1"}},{"base_weights":[-3.7400308E-3,8.346768E-2,-5.1785684E-1,-4.265713E-1,2.2585416E-1,-3.6730382E-1,-1.5254493E0,-5.7360196E-1,-2.4541281E-1,4.0931228E-1,-2.5083013E-2,-2.3085931E-1,-9.580314E-1,-2.0436285E-1,-1.2299406E-1,-6.2778644E-2,-4.810656E-2,-6.840638E-2,-1.3724576E-3,1.4620249E-2,1.2053036E-1,-2.0317636E-1,1.712042E-2,-4.334884E-2,7.1704336E-2,-1.1644411E-1,-8.680569E-2],"categories":[],"categories_nodes":[],"categories_segments":[],"categories_sizes":[],"default_left":[0,0,0,0,0,0,0,0,0,0,0,0,0,0,0,0,0,0,0,0,0,0,0,0,0,0,0],"id":28,"left_children":[1,3,5,7,9,11,13,15,17,19,21,23,25,-1,-1,-1,-1,-1,-1,-1,-1,-1,-1,-1,-1,-1,-1],"loss_changes":[1.7436151E2,2.4156667E2,8.499629E1,1.9196869E1,1.1970505E2,3.9434784E1,8.664703E0,1.7036133E0,3.322371E1,3.1439227E2,4.332282E2,7.7331955E1,6.9779205E-1,0E0,0E0,0E0,0E0,0E0,0E0,0E0,0E0,0E0,0E0,0E0,0E0,0E0,0E0],"parents":[2147483647,0,0,1,1,2,2,3,3,4,4,5,5,6,6,7,7,8,8,9,9,10,10,11,11,12,12],"right_children":[2,4,6,8,10,12,14,16,18,20,22,24,26,-1,-1,-1,-1,-1,-1,-1,-1,-1,-1,-1,-1,-1,-1],"split_conditions":[2.1E1,6E0,7E0,3E0,5E0,2.3E1,2.2E1,5E0,3E0,4E0,8E0,5E0,2E0,-2.0436285E-1,-1.2299406E-1,-6.2778644E-2,-4.810656E-2,-6.840638E-2,-1.3724576E-3,1.4620249E-2,1.2053036E-1,-2.0317636E-1,1.712042E-2,-4.334884E-2,7.1704336E-2,-1.1644411E-1,-8.680569E-2],"split_indices":[1,1,0,1,0,1,1,0,0,0,1,0,0,0,0,0,0,0,0,0,0,0,0,0,0,0,0],"split_type":[0,0,0,0,0,0,0,0,0,0,0,0,0,0,0,0,0,0,0,0,0,0,0,0,0,0,0],"sum_hessian":[3.887E3,3.324E3,5.63E2,7.25E2,2.599E3,4.91E2,7.2E1,3.99E2,3.26E2,1.501E3,1.098E3,4E2,9.1E1,2.4E1,4.8E1,2.48E2,1.51E2,1.12E2,2.14E2,1.129E3,3.72E2,9.7E1,1.001E3,3.3E2,7E1,2.4E1,6.7E1],"tree_param":{"num_deleted":"0","num_feature":"2","num_nodes":"27","size_leaf_vector":"1"}},{"base_weights":[-3.5546732E-3,5.859608E-2,-6.072461E-1,-3.8416308E-1,1.733353E-1,-4.5979336E-1,-9.1725504E-1,-3.53483E-1,-1.3065372E-1,3.306949E-1,-9.9641636E-2,-6.9426775E-1,-1.8258156E-1,-8.6443764E-1,-1.074933E-1,-5.165189E-2,-1.3850647E-2,6.9808313E-3,1.1894355E-1,-1.2478409E-1,1.3011477E-2,-7.596341E-2,-5.481069E-2,7.1353554E-3,-1.0996021E-1,-1.0526549E-1,-7.8252785E-2],"categories":[],"categories_nodes":[],"categories_segments":[],"categories_sizes":[],"default_left":[0,0,0,0,0,0,0,0,0,0,0,0,0,0,0,0,0,0,0,0,0,0,0,0,0,0,0],"id":29,"left_children":[1,3,5,7,9,11,13,15,-1,17,19,21,23,25,-1,-1,-1,-1,-1,-1,-1,-1,-1,-1,-1,-1,-1],"loss_changes":[1.4591286E2,1.7919386E2,1.61716E1,2.0082878E1,1.2035142E2,1.5993004E1,3.6842346E-2,2.4602882E1,0E0,3.9802518E2,2.7056366E2,8.6387634E-1,2.685779E1,5.946274E-1,0E0,0E0,0E0,0E0,0E0,0E0,0E0,0E0,0E0,0E0,0E0,0E0,0E0],"parents":[2147483647,0,0,1,1,2,2,3,3,4,4,5,5,6,6,7,7,9,9,10,10,11,11,12,12,13,13],"right_children":[2,4,6,8,10,12,14,16,-1,18,20,22,24,26,-1,-1,-1,-1,-1,-1,-1,-1,-1,-1,-1,-1,-1],"split_conditions":[2.2E1,6E0,2.3E1,5E0,1.7E1,4E0,7E0,3E0,-1.3065372E-1,1.5E1,2E0,3E0,7E0,2E0,-1.074933E-1,-5.165189E-2,-1.3850647E-2,6.9808313E-3,1.1894355E-1,-1.2478409E-1,1.3011477E-2,-7.596341E-2,-5.481069E-2,7.1353554E-3,-1.0996021E-1,-1.0526549E-1,-7.8252785E-2],"split_indices":[1,1,1,1,1,0,0,1,0,1,0,0,0,0,0,0,0,0,0,0,0,0,0,0,0,0,0],"split_type":[0,0,0,0,0,0,0,0,0,0,0,0,0,0,0,0,0,0,0,0,0,0,0,0,0,0,0],"sum_hessian":[3.887E3,3.525E3,3.62E2,7.25E2,2.8E3,2.47E2,1.15E2,7.03E2,2.2E1,1.776E3,1.024E3,1.33E2,1.14E2,9.1E1,2.4E1,3.99E2,3.04E2,1.363E3,4.13E2,1.7E2,8.54E2,8.9E1,4.4E1,9E1,2.4E1,2.4E1,6.7E1],"tree_param":{"num_deleted":"0","num_feature":"2","num_nodes":"27","size_leaf_vector":"1"}},{"base_weights":[-3.3811254E-3,7.1240015E-2,-4.8363233E-1,-3.206264E-1,1.7277038E-1,-2.6072392E-1,-1.2722055E0,4.927978E-2,-1.0234996E0,-5.253421E-1,2.2820032E-1,-8.670731E-1,3.3516794E-1,-1.4501365E0,-1.0029488E-1,-3.430016E-2,1.6891691E-1,-1.4605811E-1,-5.232088E-2,-2.5964556E-2,-5.956622E-2,2.9695291E-2,-3.9400194E-2,-4.3492183E-2,-1.7000203E-1,5.971166E-2,-1.8843887E-3,-1.1781597E-1,-1.859931E-1],"categories":[],"categories_nodes":[],"categories_segments":[],"categories_sizes":[],"default_left":[0,0,0,0,0,0,0,0,0,0,0,0,0,0,0,0,0,0,0,0,0,0,0,0,0,0,0,0,0],"id":30,"left_children":[1,3,5,7,9,11,13,15,17,19,21,23,25,27,-1,-1,-1,-1,-1,-1,-1,-1,-1,-1,-1,-1,-1,-1,-1],"loss_changes":[1.3936829E2,1.3397623E2,9.160106E1,1.8022845E2,1.0359387E2,1.4806992E2,4.05513E0,2.9327997E2,5.149742E1,3.526043E0,1.06120926E2,7.233234E1,1.9206966E1,5.2761536E0,0E0,0E0,0E0,0E0,0E0,0E0,0E0,0E0,0E0,0E0,0E0,0E0,0E0,0E0,0E0],"parents":[2147483647,0,0,1,1,2,2,3,3,4,4,5,5,6,6,7,7,8,8,9,9,10,10,11,11,12,12,13,13],"right_children":[2,4,6,8,10,12,14,16,18,20,22,24,26,28,-1,-1,-1,-1,-1,-1,-1,-1,-1,-1,-1,-1,-1,-1,-1],"split_conditions":[7E0,2E0,2E1,1.7E1,2E0,9E0,2.2E1,1.3E1,2.1E1,1E0,2.2E1,4E0,1.6E1,2.1E1,-1.0029488E-1,-3.430016E-2,1.6891691E-1,-1.4605811E-1,-5.232088E-2,-2.5964556E-2,-5.956622E-2,2.9695291E-2,-3.9400194E-2,-4.3492183E-2,-1.7000203E-1,5.971166E-2,-1.8843887E-3,-1.1781597E-1,-1.859931E-1],"split_indices":[0,0,1,1,1,1,1,1,1,1,1,1,1,1,0,0,0,0,0,0,0,0,0,0,0,0,0,0,0],"split_type":[0,0,0,0,0,0,0,0,0,0,0,0,0,0,0,0,0,0,0,0,0,0,0,0,0,0,0,0,0],"sum_hessian":[3.887E3,3.365E3,5.22E2,6.92E2,2.673E3,4.08E2,1.14E2,4.54E2,2.38E2,1.96E2,2.477E3,2.02E2,2.06E2,6.6E1,4.8E1,3.67E2,8.7E1,1.26E2,1.12E2,4.2E1,1.54E2,2.231E3,2.46E2,1.34E2,6.8E1,1.18E2,8.8E1,4.2E1,2.4E1],"tree_param":{"num_deleted":"0","num_feature":"2","num_nodes":"29","size_leaf_vector":"1"}},{"base_weights":[-3.2280125E-3,6.4068615E-2,-4.3633932E-1,-2.8865582E-1,1.5545753E-1,-2.35032E-1,-1.1484989E0,4.4647507E-2,-9.219794E-1,-1.8003902E-1,2.5156164E-1,-7.814174E-1,3.0193067E-1,-1.3096573E0,-9.0470076E-2,-3.0879486E-2,1.522172E-1,-1.3156728E-1,-4.713509E-2,1.210239E-2,-7.950706E-2,3.3312753E-2,-3.547614E-2,-3.917517E-2,-1.532482E-1,5.379069E-2,-1.69806E-3,-1.0630838E-1,-1.6813776E-1],"categories":[],"categories_nodes":[],"categories_segments":[],"categories_sizes":[],"default_left":[0,0,0,0,0,0,0,0,0,0,0,0,0,0,0,0,0,0,0,0,0,0,0,0,0,0,0,0,0],"id":31,"left_children":[1,3,5,7,9,11,13,15,17,19,21,23,25,27,-1,-1,-1,-1,-1,-1,-1,-1,-1,-1,-1,-1,-1,-1,-1],"loss_changes":[1.1335123E2,1.0854823E2,7.470888E1,1.4632576E2,8.626202E1,1.20231865E2,3.3335114E0,2.3808E2,4.17807E1,1.10453476E2,1.02935684E2,5.881047E1,1.5587015E1,4.353531E0,0E0,0E0,0E0,0E0,0E0,0E0,0E0,0E0,0E0,0E0,0E0,0E0,0E0,0E0,0E0],"parents":[2147483647,0,0,1,1,2,2,3,3,4,4,5,5,6,6,7,7,8,8,9,9,10,10,11,11,12,12,13,13],"right_children":[2,4,6,8,10,12,14,16,18,20,22,24,26,28,-1,-1,-1,-1,-1,-1,-1,-1,-1,-1,-1,-1,-1,-1,-1],"split_conditions":[7E0,2E0,2E1,1.7E1,8E0,9E0,2.2E1,1.3E1,2.1E1,5E0,2.2E1,4E0,1.6E1,2.1E1,-9.0470076E-2,-3.0879486E-2,1.522172E-1,-1.3156728E-1,-4.713509E-2,1.210239E-2,-7.950706E-2,3.3312753E-2,-3.547614E-2,-3.917517E-2,-1.532482E-1,5.379069E-2,-1.69806E-3,-1.0630838E-1,-1.6813776E-1],"split_indices":[0,0,1,1,1,1,1,1,1,0,1,1,1,1,0,0,0,0,0,0,0,0,0,0,0,0,0,0,0],"split_type":[0,0,0,0,0,0,0,0,0,0,0,0,0,0,0,0,0,0,0,0,0,0,0,0,0,0,0,0,0],"sum_hessian":[3.887E3,3.365E3,5.22E2,6.92E2,2.673E3,4.08E2,1.14E2,4.54E2,2.38E2,5.95E2,2.078E3,2.02E2,2.06E2,6.6E1,4.8E1,3.67E2,8.7E1,1.26E2,1.12E2,4E2,1.95E2,1.832E3,2.46E2,1.34E2,6.8E1,1.18E2,8.8E1,4.2E1,2.4E1],"tree_param":{"num_deleted":"0","num_feature":"2","num_nodes":"29","size_leaf_vector":"1"}},{"base_weights":[-3.0675305E-3,5.762439E-2,-3.936716E-1,-2.5987306E-1,1.3988622E-1,-2.1187207E-1,-1.0368224E0,4.0449433E-2,-8.3052945E-1,-4.5691672E-1,1.8727535E-1,-7.042237E-1,2.7198908E-1,-1.1827881E0,-8.160771E-2,-2.7799914E-2,1.3716838E-1,-1.1851417E-1,-4.2463306E-2,-2.013663E-2,-5.248635E-2,3.2415397E-2,-2.2284153E-3,-3.5286687E-2,-1.3814549E-1,4.8456788E-2,-1.5301587E-3,-9.59248E-2,-1.5199655E-1],"categories":[],"categories_nodes":[],"categories_segments":[],"categories_sizes":[],"default_left":[0,0,0,0,0,0,0,0,0,0,0,0,0,0,0,0,0,0,0,0,0,0,0,0,0,0,0,0,0],"id":32,"left_children":[1,3,5,7,9,11,13,15,17,19,21,23,25,27,-1,-1,-1,-1,-1,-1,-1,-1,-1,-1,-1,-1,-1,-1,-1],"loss_changes":[9.21936E1,8.794927E1,6.0931854E1,1.188006E2,7.571156E1,9.762754E1,2.7401962E0,1.9326933E2,3.38974E1,3.3149834E0,7.1086716E1,4.7816338E1,1.2649299E1,3.5919418E0,0E0,0E0,0E0,0E0,0E0,0E0,0E0,0E0,0E0,0E0,0E0,0E0,0E0,0E0,0E0],"parents":[2147483647,0,0,1,1,2,2,3,3,4,4,5,5,6,6,7,7,8,8,9,9,10,10,11,11,12,12,13,13],"right_children":[2,4,6,8,10,12,14,16,18,20,22,24,26,28,-1,-1,-1,-1,-1,-1,-1,-1,-1,-1,-1,-1,-1,-1,-1],"split_conditions":[7E0,2E0,2E1,1.7E1,2E0,9E0,2.2E1,1.3E1,2.1E1,1E0,5E0,4E0,1.6E1,2.1E1,-8.160771E-2,-2.7799914E-2,1.3716838E-1,-1.1851417E-1,-4.2463306E-2,-2.013663E-2,-5.248635E-2,3.2415397E-2,-2.2284153E-3,-3.5286687E-2,-1.3814549E-1,4.8456788E-2,-1.5301587E-3,-9.59248E-2,-1.5199655E-1],"split_indices":[0,0,1,1,1,1,1,1,1,1,0,1,1,1,0,0,0,0,0,0,0,0,0,0,0,0,0,0,0],"split_type":[0,0,0,0,0,0,0,0,0,0,0,0,0,0,0,0,0,0,0,0,0,0,0,0,0,0,0,0,0],"sum_hessian":[3.887E3,3.365E3,5.22E2,6.92E2,2.673E3,4.08E2,1.14E2,4.54E2,2.38E2,1.96E2,2.477E3,2.02E2,2.06E2,6.6E1,4.8E1,3.67E2,8.7E1,1.26E2,1.12E2,4.2E1,1.54E2,1.498E3,9.79E2,1.34E2,6.8E1,1.18E2,8.8E1,4.2E1,2.4E1],"tree_param":{"num_deleted":"0","num_feature":"2","num_nodes":"29","size_leaf_vector":"1"}},{"base_weights":[-2.9023422E-3,9.344767E-2,-2.2329138E-1,-7.817653E-2,6.734307E-1,-7.216899E-1,2.1237202E-1,-3.011777E-2,-1.1210376E0,1.1130335E0,9.895334E-2,-1.0421623E0,-3.8796037E-1,7.75891E-1,-3.4298012E-1,-1.009202E-2,6.601775E-2,-1.5298717E-1,1.010704E-2,4.815981E-2,1.4004348E-1,1.0266165E-1,-3.8106892E-2,-1.4971647E-1,-3.5244938E-2,-9.830687E-3,-5.9632868E-2,2.4881688E-1,4.3439165E-2,-5.8074E-4,-6.7800924E-2],"categories":[],"categories_nodes":[],"categories_segments":[],"categories_sizes":[],"default_left":[0,0,0,0,0,0,0,0,0,0,0,0,0,0,0,0,0,0,0,0,0,0,0,0,0,0,0,0,0,0,0],"id":33,"left_children":[1,3,5,7,9,11,13,15,17,19,21,23,25,27,29,-1,-1,-1,-1,-1,-1,-1,-1,-1,-1,-1,-1,-1,-1,-1,-1],"loss_changes":[8.258055E1,2.694055E2,2.570228E2,1.0466401E2,1.559607E2,5.863269E1,1.9805145E2,9.771803E1,4.612146E1,6.284195E1,1.2017662E2,8.765604E1,1.635783E1,1.8252808E2,3.603115E1,0E0,0E0,0E0,0E0,0E0,0E0,0E0,0E0,0E0,0E0,0E0,0E0,0E0,0E0,0E0,0E0],"parents":[2147483647,0,0,1,1,2,2,3,3,4,4,5,5,6,6,7,7,8,8,9,9,10,10,11,11,12,12,13,13,14,14],"right_children":[2,4,6,8,10,12,14,16,18,20,22,24,26,28,30,-1,-1,-1,-1,-1,-1,-1,-1,-1,-1,-1,-1,-1,-1,-1,-1],"split_conditions":[1.8E1,1.5E1,4E0,1.4E1,5E0,2.1E1,6E0,1.3E1,7E0,2E0,1.6E1,3E0,2.2E1,1.9E1,7E0,-1.009202E-2,6.601775E-2,-1.5298717E-1,1.010704E-2,4.815981E-2,1.4004348E-1,1.0266165E-1,-3.8106892E-2,-1.4971647E-1,-3.5244938E-2,-9.830687E-3,-5.9632868E-2,2.4881688E-1,4.3439165E-2,-5.8074E-4,-6.7800924E-2],"split_indices":[1,1,0,1,0,1,0,1,0,0,1,0,1,1,0,0,0,0,0,0,0,0,0,0,0,0,0,0,0,0,0],"split_type":[0,0,0,0,0,0,0,0,0,0,0,0,0,0,0,0,0,0,0,0,0,0,0,0,0,0,0,0,0,0,0],"sum_hessian":[3.887E3,2.705E3,1.182E3,2.088E3,6.17E2,5.51E2,6.31E2,1.997E3,9.1E1,3.49E2,2.68E2,2.8E2,2.71E2,3.13E2,3.18E2,1.812E3,1.85E2,6.8E1,2.3E1,1.1E2,2.39E2,9.1E1,1.77E2,1.68E2,1.12E2,1.14E2,1.57E2,5.1E1,2.62E2,1.59E2,1.59E2],"tree_param":{"num_deleted":"0","num_feature":"2","num_nodes":"31","size_leaf_vector":"1"}},{"base_weights":[-2.577389E-3,5.3160485E-2,-3.3116934E-1,-2.5572217E-1,1.3938957E-1,-2.4642146E-1,-8.978102E-1,-4.6349198E-1,-1.345694E-1,2.84973E-1,-5.9705663E-2,-1.4392346E-1,-6.905005E-2,-1.3089599E-1,-6.697174E-2,-2.676398E-2,-8.5883185E-2,-3.4282193E-2,2.1939438E-2,2.3516257E-1,2.165989E-2,-1.6716443E-1,9.800862E-3,-3.1225068E-2,6.428403E-2],"categories":[],"categories_nodes":[],"categories_segments":[],"categories_sizes":[],"default_left":[0,0,0,0,0,0,0,0,0,0,0,0,0,0,0,0,0,0,0,0,0,0,0,0,0],"id":34,"left_children":[1,3,5,7,9,11,13,15,17,19,21,23,-1,-1,-1,-1,-1,-1,-1,-1,-1,-1,-1,-1,-1],"loss_changes":[7.122639E1,8.859592E1,2.686295E1,1.8212421E1,7.537792E1,2.2295088E1,5.96933E0,2.0443466E1,3.3983585E1,2.1173149E2,2.7955795E2,5.3306656E1,0E0,0E0,0E0,0E0,0E0,0E0,0E0,0E0,0E0,0E0,0E0,0E0,0E0],"parents":[2147483647,0,0,1,1,2,2,3,3,4,4,5,5,6,6,7,7,8,8,9,9,10,10,11,11],"right_children":[2,4,6,8,10,12,14,16,18,20,22,24,-1,-1,-1,-1,-1,-1,-1,-1,-1,-1,-1,-1,-1],"split_conditions":[2.1E1,6E0,7E0,3E0,5E0,2.3E1,2.2E1,4E0,4E0,7E0,8E0,5E0,-6.905005E-2,-1.3089599E-1,-6.697174E-2,-2.676398E-2,-8.5883185E-2,-3.4282193E-2,2.1939438E-2,2.3516257E-1,2.165989E-2,-1.6716443E-1,9.800862E-3,-3.1225068E-2,6.428403E-2],"split_indices":[1,1,0,0,0,1,1,1,1,1,1,0,0,0,0,0,0,0,0,0,0,0,0,0,0],"split_type":[0,0,0,0,0,0,0,0,0,0,0,0,0,0,0,0,0,0,0,0,0,0,0,0,0],"sum_hessian":[3.887E3,3.324E3,5.63E2,7.25E2,2.599E3,4.91E2,7.2E1,2.66E2,4.59E2,1.501E3,1.098E3,4E2,9.1E1,2.4E1,4.8E1,1.79E2,8.7E1,2.89E2,1.7E2,4.7E1,1.454E3,9.7E1,1.001E3,3.3E2,7E1],"tree_param":{"num_deleted":"0","num_feature":"2","num_nodes":"25","size_leaf_vector":"1"}},{"base_weights":[-2.3861607E-3,8.160466E-2,-1.9450517E-1,-6.884014E-2,5.90015E-1,-6.439945E-1,1.9839457E-1,-2.500021E-2,-1.0201808E0,1.2669607E0,2.6786688E-1,-9.601872E-1,-3.1497195E-1,6.936828E-1,-2.8975245E-1,-8.66478E-3,5.7603247E-2,-1.3887604E-1,8.199287E-3,4.1240674E-2,2.3185173E-1,4.6424415E-2,-2.6976207E-2,-1.3698658E-1,-3.3898488E-2,-5.7608183E-3,-5.0030023E-2,2.2228931E-1,3.8869187E-2,-1.4584303E-4,-5.7623554E-2],"categories":[],"categories_nodes":[],"categories_segments":[],"categories_sizes":[],"default_left":[0,0,0,0,0,0,0,0,0,0,0,0,0,0,0,0,0,0,0,0,0,0,0,0,0,0,0,0,0,0,0],"id":35,"left_children":[1,3,5,7,9,11,13,15,17,19,21,23,25,27,29,-1,-1,-1,-1,-1,-1,-1,-1,-1,-1,-1,-1,-1,-1,-1,-1],"loss_changes":[6.2753548E1,2.0701631E2,2.090506E2,8.709981E1,1.3443208E2,5.712462E1,1.5300183E2,7.408024E1,3.748784E1,1.7786758E2,4.446805E1,7.104828E1,1.29447E1,1.4558408E2,2.6345798E1,0E0,0E0,0E0,0E0,0E0,0E0,0E0,0E0,0E0,0E0,0E0,0E0,0E0,0E0,0E0,0E0],"parents":[2147483647,0,0,1,1,2,2,3,3,4,4,5,5,6,6,7,7,8,8,9,9,10,10,11,11,12,12,13,13,14,14],"right_children":[2,4,6,8,10,12,14,16,18,20,22,24,26,28,30,-1,-1,-1,-1,-1,-1,-1,-1,-1,-1,-1,-1,-1,-1,-1,-1],"split_conditions":[1.8E1,1.5E1,4E0,1.4E1,3E0,2.1E1,6E0,1.3E1,7E0,2E0,1.7E1,3E0,2.2E1,1.9E1,7E0,-8.66478E-3,5.7603247E-2,-1.3887604E-1,8.199287E-3,4.1240674E-2,2.3185173E-1,4.6424415E-2,-2.6976207E-2,-1.3698658E-1,-3.3898488E-2,-5.7608183E-3,-5.0030023E-2,2.2228931E-1,3.8869187E-2,-1.4584303E-4,-5.7623554E-2],"split_indices":[1,1,0,1,0,1,0,1,0,0,1,0,1,1,0,0,0,0,0,0,0,0,0,0,0,0,0,0,0,0,0],"split_type":[0,0,0,0,0,0,0,0,0,0,0,0,0,0,0,0,0,0,0,0,0,0,0,0,0,0,0,0,0,0,0],"sum_hessian":[3.887E3,2.705E3,1.182E3,2.088E3,6.17E2,5.51E2,6.31E2,1.997E3,9.1E1,1.98E2,4.19E2,2.8E2,2.71E2,3.13E2,3.18E2,1.812E3,1.85E2,6.8E1,2.3E1,1.1E2,8.8E1,3.07E2,1.12E2,1.68E2,1.12E2,1.14E2,1.57E2,5.1E1,2.62E2,1.59E2,1.59E2],"tree_param":{"num_deleted":"0","num_feature":"2","num_nodes":"31","size_leaf_vector":"1"}},{"base_weights":[-2.0992907E-3,3.5891797E-2,-3.711199E-1,-2.216692E-1,1.0263703E-1,-2.60678E-1,-6.0403775E-2,-1.915209E-1,-1.1348315E-1,2.1015057E-1,-5.3042077E-2,-4.067726E-1,9.512113E-2,-4.0893227E-2,-5.855206E-3,2.1298468E-1,1.5278687E-2,-1.4976089E-1,8.209209E-3,-4.545788E-2,-3.5264242E-2,4.2123243E-2,-5.4786183E-2],"categories":[],"categories_nodes":[],"categories_segments":[],"categories_sizes":[],"default_left":[0,0,0,0,0,0,0,0,0,0,0,0,0,0,0,0,0,0,0,0,0,0,0],"id":36,"left_children":[1,3,5,7,9,11,-1,13,-1,15,17,19,21,-1,-1,-1,-1,-1,-1,-1,-1,-1,-1],"loss_changes":[5.452111E1,6.0638107E1,9.180313E0,1.9769646E1,4.6893192E1,1.2929819E1,0E0,2.0327946E1,0E0,1.821449E2,2.2363876E2,2.9514122E-1,1.5537709E1,0E0,0E0,0E0,0E0,0E0,0E0,0E0,0E0,0E0,0E0],"parents":[2147483647,0,0,1,1,2,2,3,3,4,4,5,5,7,7,9,9,10,10,11,11,12,12],"right_children":[2,4,6,8,10,12,-1,14,-1,16,18,20,22,-1,-1,-1,-1,-1,-1,-1,-1,-1,-1],"split_conditions":[2.2E1,6E0,2.3E1,5E0,5E0,5E0,-6.0403775E-2,3E0,-1.1348315E-1,7E0,8E0,3E0,7E0,-4.0893227E-2,-5.855206E-3,2.1298468E-1,1.5278687E-2,-1.4976089E-1,8.209209E-3,-4.545788E-2,-3.5264242E-2,4.2123243E-2,-5.4786183E-2],"split_indices":[1,1,1,1,0,0,0,0,0,1,1,0,0,0,0,0,0,0,0,0,0,0,0],"split_type":[0,0,0,0,0,0,0,0,0,0,0,0,0,0,0,0,0,0,0,0,0,0,0],"sum_hessian":[3.887E3,3.525E3,3.62E2,7.25E2,2.8E3,2.47E2,1.15E2,7.03E2,2.2E1,1.656E3,1.144E3,1.75E2,7.2E1,2.66E2,4.37E2,4.7E1,1.609E3,9.7E1,1.047E3,8.9E1,8.6E1,4.8E1,2.4E1],"tree_param":{"num_deleted":"0","num_feature":"2","num_nodes":"23","size_leaf_vector":"1"}},{"base_weights":[-1.9475727E-3,7.2748214E-2,-1.7280544E-1,-5.9392035E-2,5.1929873E-1,-5.7814467E-1,1.8149844E-1,-1.9380009E-2,-9.2770326E-1,1.1264359E0,2.3039497E-1,-8.800007E-1,-2.6417518E-1,6.2165475E-1,-2.5232783E-1,-7.320435E-3,5.0536674E-2,-1.2599874E-1,6.626765E-3,3.5639737E-2,2.0741645E-1,4.0684983E-2,-2.5260052E-2,-1.248878E-1,-3.2052938E-2,-1.4701368E-2,-6.1349776E-2,1.2306779E-1,-2.7256373E-3,4.310024E-4,-5.0738867E-2],"categories":[],"categories_nodes":[],"categories_segments":[],"categories_sizes":[],"default_left":[0,0,0,0,0,0,0,0,0,0,0,0,0,0,0,0,0,0,0,0,0,0,0,0,0,0,0,0,0,0,0],"id":37,"left_children":[1,3,5,7,9,11,13,15,17,19,21,23,25,27,29,-1,-1,-1,-1,-1,-1,-1,-1,-1,-1,-1,-1,-1,-1,-1,-1],"loss_changes":[4.963264E1,1.597046E2,1.699994E2,7.255992E1,1.0814029E2,5.208255E1,1.2083811E2,5.6468796E1,3.0469322E1,1.4448846E2,3.5898067E1,5.759143E1,1.1041994E1,1.24126915E2,2.088337E1,0E0,0E0,0E0,0E0,0E0,0E0,0E0,0E0,0E0,0E0,0E0,0E0,0E0,0E0,0E0,0E0],"parents":[2147483647,0,0,1,1,2,2,3,3,4,4,5,5,6,6,7,7,8,8,9,9,10,10,11,11,12,12,13,13,14,14],"right_children":[2,4,6,8,10,12,14,16,18,20,22,24,26,28,30,-1,-1,-1,-1,-1,-1,-1,-1,-1,-1,-1,-1,-1,-1,-1,-1],"split_conditions":[1.8E1,1.5E1,4E0,1.4E1,3E0,2.1E1,6E0,1.3E1,7E0,2E0,1.7E1,3E0,3E0,2.1E1,7E0,-7.320435E-3,5.0536674E-2,-1.2599874E-1,6.626765E-3,3.5639737E-2,2.0741645E-1,4.0684983E-2,-2.5260052E-2,-1.248878E-1,-3.2052938E-2,-1.4701368E-2,-6.1349776E-2,1.2306779E-1,-2.7256373E-3,4.310024E-4,-5.0738867E-2],"split_indices":[1,1,0,1,0,1,0,1,0,0,1,0,0,1,0,0,0,0,0,0,0,0,0,0,0,0,0,0,0,0,0],"split_type":[0,0,0,0,0,0,0,0,0,0,0,0,0,0,0,0,0,0,0,0,0,0,0,0,0,0,0,0,0,0,0],"sum_hessian":[3.887E3,2.705E3,1.182E3,2.088E3,6.17E2,5.51E2,6.31E2,1.997E3,9.1E1,1.98E2,4.19E2,2.8E2,2.71E2,3.13E2,3.18E2,1.812E3,1.85E2,6.8E1,2.3E1,1.1E2,8.8E1,3.07E2,1.12E2,1.68E2,1.12E2,2.04E2,6.7E1,1.61E2,1.52E2,1.59E2,1.59E2],"tree_param":{"num_deleted":"0","num_feature":"2","num_nodes":"31","size_leaf_vector":"1"}},{"base_weights":[-1.7478671E-3,3.8806256E-2,-2.627487E-1,-1.8769029E-1,9.749111E-2,-1.4187483E-1,-6.903544E-1,2.0597257E-1,-4.103126E-1,-3.3998775E-1,1.3223116E-1,-5.4679775E-1,2.5590888E-1,-8.6201805E-1,-4.415418E-2,-1.7937599E-2,1.2049364E-1,-2.3848665E-1,-1.6432917E-2,-1.035834E-2,-4.033774E-2,1.7587896E-2,-2.627247E-2,-2.5211725E-2,-1.115422E-1,3.929414E-2,6.9810264E-3,-7.110789E-2,-1.0871527E-1],"categories":[],"categories_nodes":[],"categories_segments":[],"categories_sizes":[],"default_left":[0,0,0,0,0,0,0,0,0,0,0,0,0,0,0,0,0,0,0,0,0,0,0,0,0,0,0,0,0],"id":38,"left_children":[1,3,5,7,9,11,13,15,17,19,21,23,25,27,-1,-1,-1,-1,-1,-1,-1,-1,-1,-1,-1,-1,-1,-1,-1],"loss_changes":[4.1163353E1,4.475889E1,2.6934021E1,6.081774E1,4.068451E1,6.601827E1,4.531269E0,9.6838394E1,2.1477655E2,2.9103794E0,4.2764328E1,3.373396E1,5.2513895E0,1.5037193E0,0E0,0E0,0E0,0E0,0E0,0E0,0E0,0E0,0E0,0E0,0E0,0E0,0E0,0E0,0E0],"parents":[2147483647,0,0,1,1,2,2,3,3,4,4,5,5,6,6,7,7,8,8,9,9,10,10,11,11,12,12,13,13],"right_children":[2,4,6,8,10,12,14,16,18,20,22,24,26,28,-1,-1,-1,-1,-1,-1,-1,-1,-1,-1,-1,-1,-1,-1,-1],"split_conditions":[7E0,2E0,2E1,8E0,2E0,9E0,2.2E1,5E0,1E1,1E0,2.2E1,4E0,1.6E1,2.1E1,-4.415418E-2,-1.7937599E-2,1.2049364E-1,-2.3848665E-1,-1.6432917E-2,-1.035834E-2,-4.033774E-2,1.7587896E-2,-2.627247E-2,-2.5211725E-2,-1.115422E-1,3.929414E-2,6.9810264E-3,-7.110789E-2,-1.0871527E-1],"split_indices":[0,0,1,1,1,1,1,1,1,1,1,1,1,1,0,0,0,0,0,0,0,0,0,0,0,0,0,0,0],"split_type":[0,0,0,0,0,0,0,0,0,0,0,0,0,0,0,0,0,0,0,0,0,0,0,0,0,0,0,0,0],"sum_hessian":[3.887E3,3.365E3,5.22E2,6.92E2,2.673E3,4.08E2,1.14E2,2.5E2,4.42E2,1.96E2,2.477E3,2.02E2,2.06E2,6.6E1,4.8E1,1.81E2,6.9E1,4.8E1,3.94E2,4.2E1,1.54E2,2.231E3,2.46E2,1.34E2,6.8E1,1.18E2,8.8E1,4.2E1,2.4E1],"tree_param":{"num_deleted":"0","num_feature":"2","num_nodes":"29","size_leaf_vector":"1"}},{"base_weights":[-1.70819E-3,6.309799E-2,-1.4994472E-1,-5.3229727E-2,4.5621368E-1,-5.1934165E-1,1.7293037E-1,-1.6098125E-2,-8.5905266E-1,7.9555905E-1,1.29903E-2,-8.0027777E-1,-2.2720051E-1,5.547726E-1,-2.0346895E-1,-6.304891E-3,4.416323E-2,-1.1531468E-1,2.226154E-3,3.3736527E-2,1.00415885E-1,7.982712E-2,-3.9295822E-2,-1.12590745E-1,-3.0619208E-2,-1.216712E-2,-5.419991E-2,1.8519431E-1,2.9618839E-2,-3.9249826E-5,-4.5983218E-2],"categories":[],"categories_nodes":[],"categories_segments":[],"categories_sizes":[],"default_left":[0,0,0,0,0,0,0,0,0,0,0,0,0,0,0,0,0,0,0,0,0,0,0,0,0,0,0,0,0,0,0],"id":39,"left_children":[1,3,5,7,9,11,13,15,17,19,21,23,25,27,29,-1,-1,-1,-1,-1,-1,-1,-1,-1,-1,-1,-1,-1,-1,-1,-1],"loss_changes":[3.736009E1,1.2377033E2,1.4118512E2,6.2492184E1,9.294046E1,4.5122482E1,9.0947174E1,4.2966465E1,2.3871086E1,3.3113922E1,8.606648E1,4.4865067E1,8.970024E0,1.047758E2,1.6607384E1,0E0,0E0,0E0,0E0,0E0,0E0,0E0,0E0,0E0,0E0,0E0,0E0,0E0,0E0,0E0,0E0],"parents":[2147483647,0,0,1,1,2,2,3,3,4,4,5,5,6,6,7,7,8,8,9,9,10,10,11,11,12,12,13,13,14,14],"right_children":[2,4,6,8,10,12,14,16,18,20,22,24,26,28,30,-1,-1,-1,-1,-1,-1,-1,-1,-1,-1,-1,-1,-1,-1,-1,-1],"split_conditions":[1.8E1,1.5E1,4E0,1.4E1,5E0,2.1E1,6E0,1.3E1,7E0,2E0,1.6E1,3E0,3E0,1.9E1,2.1E1,-6.304891E-3,4.416323E-2,-1.1531468E-1,2.226154E-3,3.3736527E-2,1.00415885E-1,7.982712E-2,-3.9295822E-2,-1.12590745E-1,-3.0619208E-2,-1.216712E-2,-5.419991E-2,1.8519431E-1,2.9618839E-2,-3.9249826E-5,-4.5983218E-2],"split_indices":[1,1,0,1,0,1,0,1,0,0,1,0,0,1,1,0,0,0,0,0,0,0,0,0,0,0,0,0,0,0,0],"split_type":[0,0,0,0,0,0,0,0,0,0,0,0,0,0,0,0,0,0,0,0,0,0,0,0,0,0,0,0,0,0,0],"sum_hessian":[3.887E3,2.705E3,1.182E3,2.088E3,6.17E2,5.51E2,6.31E2,1.997E3,9.1E1,3.49E2,2.68E2,2.8E2,2.71E2,3.13E2,3.18E2,1.812E3,1.85E2,6.8E1,2.3E1,1.1E2,2.39E2,9.1E1,1.77E2,1.68E2,1.12E2,2.04E2,6.7E1,5.1E1,2.62E2,1.78E2,1.4E2],"tree_param":{"num_deleted":"0","num_feature":"2","num_nodes":"31","size_leaf_vector":"1"}},{"base_weights":[-1.5221483E-3,6.500126E-2,-1.2152217E-1,-4.7942396E-2,6.347459E-1,-3.1864077E-1,6.1001584E-2,-1.4468974E-2,-7.743767E-1,1.6103884E0,2.9374433E-1,3.9383718E-1,-4.6778715E-1,-6.061041E-1,1.5590428E-1,-5.674711E-3,3.9770696E-2,-1.03950344E-1,2.012841E-3,1.18288815E-1,2.2438319E-1,-6.0041703E-2,5.215428E-2,-9.637862E-2,1.267877E-1,-1.09445274E-1,-3.4657802E-2,-2.1532767E-1,9.206104E-2,4.8222937E-2,-2.2329856E-2],"categories":[],"categories_nodes":[],"categories_segments":[],"categories_sizes":[],"default_left":[0,0,0,0,0,0,0,0,0,0,0,0,0,0,0,0,0,0,0,0,0,0,0,0,0,0,0,0,0,0,0],"id":40,"left_children":[1,3,5,7,9,11,13,15,17,19,21,23,25,27,29,-1,-1,-1,-1,-1,-1,-1,-1,-1,-1,-1,-1,-1,-1,-1,-1],"loss_changes":[3.1045063E1,1.6103174E2,4.9922073E1,5.0785427E1,1.3726294E2,7.1062E1,4.5741096E1,3.483977E1,1.9400227E1,2.6321106E1,6.3049225E1,1.3886954E2,4.154928E1,2.145705E2,7.831351E1,0E0,0E0,0E0,0E0,0E0,0E0,0E0,0E0,0E0,0E0,0E0,0E0,0E0,0E0,0E0,0E0],"parents":[2147483647,0,0,1,1,2,2,3,3,4,4,5,5,6,6,7,7,8,8,9,9,10,10,11,11,12,12,13,13,14,14],"right_children":[2,4,6,8,10,12,14,16,18,20,22,24,26,28,30,-1,-1,-1,-1,-1,-1,-1,-1,-1,-1,-1,-1,-1,-1,-1,-1],"split_conditions":[1.7E1,1.5E1,4E0,1.4E1,3E0,1.8E1,1.8E1,1.3E1,7E0,2E0,4E0,2E0,1.9E1,6E0,2.1E1,-5.674711E-3,3.9770696E-2,-1.03950344E-1,2.012841E-3,1.18288815E-1,2.2438319E-1,-6.0041703E-2,5.215428E-2,-9.637862E-2,1.267877E-1,-1.09445274E-1,-3.4657802E-2,-2.1532767E-1,9.206104E-2,4.8222937E-2,-2.2329856E-2],"split_indices":[1,1,0,1,0,1,1,1,0,0,0,0,1,0,1,0,0,0,0,0,0,0,0,0,0,0,0,0,0,0,0],"split_type":[0,0,0,0,0,0,0,0,0,0,0,0,0,0,0,0,0,0,0,0,0,0,0,0,0,0,0,0,0,0,0],"sum_hessian":[3.887E3,2.501E3,1.386E3,2.088E3,4.13E2,6.66E2,7.2E2,1.997E3,9.1E1,1.06E2,3.07E2,1.15E2,5.51E2,8.9E1,6.31E2,1.812E3,1.85E2,6.8E1,2.3E1,6.5E1,4.1E1,6.2E1,2.45E2,4.5E1,7E1,8.8E1,4.63E2,4.4E1,4.5E1,3.39E2,2.92E2],"tree_param":{"num_deleted":"0","num_feature":"2","num_nodes":"31","size_leaf_vector":"1"}},{"base_weights":[-1.3555882E-3,3.544695E-2,-2.3821217E-1,-7.5017978E-3,3.1377152E-1,-4.808711E-1,-8.401285E-2,5.6173556E-2,-2.5767303E-1,9.215726E-1,-8.367307E-2,-2.1520136E-1,-9.9369067E-1,2.0199372E-1,-5.980941E-1,-5.7742046E-3,4.047805E-2,-4.263156E-2,9.285859E-2,-3.460437E-2,1.0933305E-1,-6.4061336E-2,1.9831693E-2,-1.3546153E-2,-3.716708E-2,-1.18529856E-1,-5.5894006E-2,3.3489868E-2,2.2019742E-3,-7.842344E-2,-3.3136975E-2],"categories":[],"categories_nodes":[],"categories_segments":[],"categories_sizes":[],"default_left":[0,0,0,0,0,0,0,0,0,0,0,0,0,0,0,0,0,0,0,0,0,0,0,0,0,0,0,0,0,0,0],"id":41,"left_children":[1,3,5,7,9,11,13,15,17,19,21,23,25,27,29,-1,-1,-1,-1,-1,-1,-1,-1,-1,-1,-1,-1,-1,-1,-1,-1],"loss_changes":[3.389984E1,4.0238483E1,1.9529133E1,4.6481525E1,1.0878238E2,2.7443008E1,4.7317635E1,9.239295E1,1.18827675E2,3.913304E1,4.3002125E1,1.6340265E0,5.085312E0,4.9439487E0,5.449665E0,0E0,0E0,0E0,0E0,0E0,0E0,0E0,0E0,0E0,0E0,0E0,0E0,0E0,0E0,0E0,0E0],"parents":[2147483647,0,0,1,1,2,2,3,3,4,4,5,5,6,6,7,7,8,8,9,9,10,10,11,11,12,12,13,13,14,14],"right_children":[2,4,6,8,10,12,14,16,18,20,22,24,26,28,30,-1,-1,-1,-1,-1,-1,-1,-1,-1,-1,-1,-1,-1,-1,-1,-1],"split_conditions":[7E0,6E0,9E0,5E0,1.2E1,4E0,2E1,4E0,2E1,2E0,1.7E1,3E0,7E0,1.6E1,2.2E1,-5.7742046E-3,4.047805E-2,-4.263156E-2,9.285859E-2,-3.460437E-2,1.0933305E-1,-6.4061336E-2,1.9831693E-2,-1.3546153E-2,-3.716708E-2,-1.18529856E-1,-5.5894006E-2,3.3489868E-2,2.2019742E-3,-7.842344E-2,-3.3136975E-2],"split_indices":[0,0,1,0,1,1,1,0,1,1,1,1,1,1,1,0,0,0,0,0,0,0,0,0,0,0,0,0,0,0,0],"split_type":[0,0,0,0,0,0,0,0,0,0,0,0,0,0,0,0,0,0,0,0,0,0,0,0,0,0,0,0,0,0,0],"sum_hessian":[3.887E3,3.365E3,5.22E2,2.916E3,4.49E2,2.02E2,3.2E2,2.325E3,5.91E2,1.77E2,2.72E2,1.34E2,6.8E1,2.06E2,1.14E2,1.753E3,5.72E2,5.18E2,7.3E1,2.1E1,1.56E2,9.1E1,1.81E2,9E1,4.4E1,4.6E1,2.2E1,1.18E2,8.8E1,6.6E1,4.8E1],"tree_param":{"num_deleted":"0","num_feature":"2","num_nodes":"31","size_leaf_vector":"1"}},{"base_weights":[-1.2678403E-3,5.4431524E-2,-1.2867376E-1,-4.2008884E-2,3.80337E-1,-4.1550577E-1,1.22053966E-1,-1.30812805E-2,-6.697843E-1,8.6599445E-1,1.493223E-1,-9.805278E-1,-3.062332E-1,4.1906506E-1,-2.2301711E-1,-5.184661E-3,3.648468E-2,-8.8821314E-2,-1.3893843E-3,2.7945815E-2,1.5877871E-1,4.3747406E-2,-2.0870129E-3,2.2257058E-2,-1.378897E-1,-5.044778E-2,-1.6444115E-2,9.243151E-2,-4.054145E-3,-1.3416062E-2,-4.8896596E-2],"categories":[],"categories_nodes":[],"categories_segments":[],"categories_sizes":[],"default_left":[0,0,0,0,0,0,0,0,0,0,0,0,0,0,0,0,0,0,0,0,0,0,0,0,0,0,0,0,0,0,0],"id":42,"left_children":[1,3,5,7,9,11,13,15,17,19,21,23,25,27,29,-1,-1,-1,-1,-1,-1,-1,-1,-1,-1,-1,-1,-1,-1,-1,-1],"loss_changes":[2.7597921E1,8.506679E1,8.512821E1,3.7927555E1,6.92066E1,3.3780983E1,6.4867096E1,2.9290628E1,1.3168076E1,8.380441E1,2.0606455E1,4.2962578E1,1.2959858E1,7.899098E1,6.858366E0,0E0,0E0,0E0,0E0,0E0,0E0,0E0,0E0,0E0,0E0,0E0,0E0,0E0,0E0,0E0,0E0],"parents":[2147483647,0,0,1,1,2,2,3,3,4,4,5,5,6,6,7,7,8,8,9,9,10,10,11,11,12,12,13,13,14,14],"right_children":[2,4,6,8,10,12,14,16,18,20,22,24,26,28,30,-1,-1,-1,-1,-1,-1,-1,-1,-1,-1,-1,-1,-1,-1,-1,-1],"split_conditions":[1.8E1,1.5E1,4E0,1.4E1,3E0,1.9E1,2.1E1,1.3E1,7E0,2E0,1.6E1,2E0,2.1E1,6E0,7E0,-5.184661E-3,3.648468E-2,-8.8821314E-2,-1.3893843E-3,2.7945815E-2,1.5877871E-1,4.3747406E-2,-2.0870129E-3,2.2257058E-2,-1.378897E-1,-5.044778E-2,-1.6444115E-2,9.243151E-2,-4.054145E-3,-1.3416062E-2,-4.8896596E-2],"split_indices":[1,1,0,1,0,1,1,1,0,0,1,0,1,0,0,0,0,0,0,0,0,0,0,0,0,0,0,0,0,0,0],"split_type":[0,0,0,0,0,0,0,0,0,0,0,0,0,0,0,0,0,0,0,0,0,0,0,0,0,0,0,0,0,0,0],"sum_hessian":[3.887E3,2.705E3,1.182E3,2.088E3,6.17E2,5.51E2,6.31E2,1.997E3,9.1E1,1.98E2,4.19E2,8.8E1,4.63E2,3.39E2,2.92E2,1.812E3,1.85E2,6.8E1,2.3E1,1.1E2,8.8E1,1.55E2,2.64E2,2.2E1,6.6E1,1.92E2,2.71E2,1.61E2,1.78E2,2.2E2,7.2E1],"tree_param":{"num_deleted":"0","num_feature":"2","num_nodes":"31","size_leaf_vector":"1"}},{"base_weights":[-1.1377722E-3,3.0776707E-2,-2.0653547E-1,-8.889162E-3,2.878313E-1,-4.28734E-1,-6.5374E-2,4.808572E-2,-2.3273154E-1,8.349905E-1,-6.997884E-2,-1.8891072E-1,-8.917399E-1,1.803788E-1,-5.0716054E-1,-4.915967E-3,3.4567792E-2,-3.8118552E-2,8.115974E-2,5.711474E-2,1.558231E-1,-5.7538576E-2,1.8588608E-2,-1.1693664E-2,-3.3026032E-2,-1.0642164E-1,-5.0051667E-2,2.9664058E-2,2.2900894E-3,-6.8692476E-2,-2.5101027E-2],"categories":[],"categories_nodes":[],"categories_segments":[],"categories_sizes":[],"default_left":[0,0,0,0,0,0,0,0,0,0,0,0,0,0,0,0,0,0,0,0,0,0,0,0,0,0,0,0,0,0,0],"id":43,"left_children":[1,3,5,7,9,11,13,15,17,19,21,23,25,27,29,-1,-1,-1,-1,-1,-1,-1,-1,-1,-1,-1,-1,-1,-1,-1,-1],"loss_changes":[2.5492823E1,3.4323284E1,1.6376322E1,3.7212837E1,8.815903E1,2.2372574E1,3.4942543E1,6.73302E1,9.2089966E1,3.3076332E1,3.5410194E1,1.3348036E0,4.1232452E0,3.7830987E0,5.12294E0,0E0,0E0,0E0,0E0,0E0,0E0,0E0,0E0,0E0,0E0,0E0,0E0,0E0,0E0,0E0,0E0],"parents":[2147483647,0,0,1,1,2,2,3,3,4,4,5,5,6,6,7,7,8,8,9,9,10,10,11,11,12,12,13,13,14,14],"right_children":[2,4,6,8,10,12,14,16,18,20,22,24,26,28,30,-1,-1,-1,-1,-1,-1,-1,-1,-1,-1,-1,-1,-1,-1,-1,-1],"split_conditions":[7E0,6E0,9E0,5E0,1.2E1,4E0,2E1,4E0,2E1,1.1E1,1.7E1,3E0,7E0,1.6E1,2.2E1,-4.915967E-3,3.4567792E-2,-3.8118552E-2,8.115974E-2,5.711474E-2,1.558231E-1,-5.7538576E-2,1.8588608E-2,-1.1693664E-2,-3.3026032E-2,-1.0642164E-1,-5.0051667E-2,2.9664058E-2,2.2900894E-3,-6.8692476E-2,-2.5101027E-2],"split_indices":[0,0,1,0,1,1,1,0,1,1,1,1,1,1,1,0,0,0,0,0,0,0,0,0,0,0,0,0,0,0,0],"split_type":[0,0,0,0,0,0,0,0,0,0,0,0,0,0,0,0,0,0,0,0,0,0,0,0,0,0,0,0,0,0,0],"sum_hessian":[3.887E3,3.365E3,5.22E2,2.916E3,4.49E2,2.02E2,3.2E2,2.325E3,5.91E2,1.77E2,2.72E2,1.34E2,6.8E1,2.06E2,1.14E2,1.753E3,5.72E2,5.18E2,7.3E1,1.31E2,4.6E1,9.1E1,1.81E2,9E1,4.4E1,4.6E1,2.2E1,1.18E2,8.8E1,6.6E1,4.8E1],"tree_param":{"num_deleted":"0","num_feature":"2","num_nodes":"31","size_leaf_vector":"1"}},{"base_weights":[-1.0283486E-3,6.1341826E-2,-1.13536745E-1,-3.6693916E-2,5.558716E-1,-3.3006385E-1,-4.3291175E-3,-1.1732848E-2,-5.7838434E-1,1.3853244E0,2.6591274E-1,-5.502866E-1,-4.807263E-2,1.591643E-1,-2.6045677E-1,-4.728442E-3,3.3486247E-2,-7.56921E-2,-4.0992103E-3,1.10930264E-1,2.2463039E-1,-5.5931177E-2,4.761698E-2,8.634116E-3,-8.973641E-2,3.1889375E-2,-3.4379926E-2,4.4364106E-2,-7.202732E-3,-4.088242E-2,-1.2101083E-2],"categories":[],"categories_nodes":[],"categories_segments":[],"categories_sizes":[],"default_left":[0,0,0,0,0,0,0,0,0,0,0,0,0,0,0,0,0,0,0,0,0,0,0,0,0,0,0,0,0,0,0],"id":44,"left_children":[1,3,5,7,9,11,13,15,17,19,21,23,25,27,29,-1,-1,-1,-1,-1,-1,-1,-1,-1,-1,-1,-1,-1,-1,-1,-1],"loss_changes":[2.7289715E1,1.2132133E2,3.2796143E1,2.8238937E1,9.92016E1,2.8850456E1,3.869225E1,2.4635206E1,8.795839E0,2.29366E1,5.3707172E1,5.7747818E1,2.235659E1,3.712547E1,7.398657E0,0E0,0E0,0E0,0E0,0E0,0E0,0E0,0E0,0E0,0E0,0E0,0E0,0E0,0E0,0E0,0E0],"parents":[2147483647,0,0,1,1,2,2,3,3,4,4,5,5,6,6,7,7,8,8,9,9,10,10,11,11,12,12,13,13,14,14],"right_children":[2,4,6,8,10,12,14,16,18,20,22,24,26,28,30,-1,-1,-1,-1,-1,-1,-1,-1,-1,-1,-1,-1,-1,-1,-1,-1],"split_conditions":[1.7E1,1.5E1,3E0,1.4E1,3E0,2.1E1,2.1E1,1.3E1,7E0,1.6E1,4E0,1.8E1,2.2E1,5E0,5E0,-4.728442E-3,3.3486247E-2,-7.56921E-2,-4.0992103E-3,1.10930264E-1,2.2463039E-1,-5.5931177E-2,4.761698E-2,8.634116E-3,-8.973641E-2,3.1889375E-2,-3.4379926E-2,4.4364106E-2,-7.202732E-3,-4.088242E-2,-1.2101083E-2],"split_indices":[1,1,0,1,0,1,1,1,0,1,0,1,1,0,0,0,0,0,0,0,0,0,0,0,0,0,0,0,0,0,0],"split_type":[0,0,0,0,0,0,0,0,0,0,0,0,0,0,0,0,0,0,0,0,0,0,0,0,0,0,0,0,0,0,0],"sum_hessian":[3.887E3,2.501E3,1.386E3,2.088E3,4.13E2,4.64E2,9.22E2,1.997E3,9.1E1,1.06E2,3.07E2,2.6E2,2.04E2,5.63E2,3.59E2,1.812E3,1.85E2,6.8E1,2.3E1,8.2E1,2.4E1,6.2E1,2.45E2,9.2E1,1.68E2,9.1E1,1.13E2,2.52E2,3.11E2,1.73E2,1.86E2],"tree_param":{"num_deleted":"0","num_feature":"2","num_nodes":"31","size_leaf_vector":"1"}},{"base_weights":[-8.801021E-4,5.5318024E-2,-1.0225489E-1,-3.3049002E-2,5.01075E-1,-4.17578E-1,-3.6576487E-2,-1.0545187E-2,-5.214139E-1,1.2499286E0,2.3929448E-1,-6.6617596E-1,-1.3448493E-1,-3.710205E-3,-4.1414118E-1,-2.216314E-2,4.2265966E-3,-6.823268E-2,-3.7063998E-3,9.997096E-2,2.0306586E-1,-5.042684E-2,4.287464E-2,-4.1724138E-2,-2.0592128E-1,9.287584E-3,-2.8081466E-2,-1.3607855E-2,8.643223E-3,-4.8809208E-2,-1.9642914E-2],"categories":[],"categories_nodes":[],"categories_segments":[],"categories_sizes":[],"default_left":[0,0,0,0,0,0,0,0,0,0,0,0,0,0,0,0,0,0,0,0,0,0,0,0,0,0,0,0,0,0,0],"id":45,"left_children":[1,3,5,7,9,11,13,15,17,19,21,23,25,27,29,-1,-1,-1,-1,-1,-1,-1,-1,-1,-1,-1,-1,-1,-1,-1,-1],"loss_changes":[2.2155876E1,9.85709E1,2.8709381E1,2.2952763E1,8.085951E1,1.6730362E1,1.4256575E1,2.2282484E1,7.1450176E0,1.8872742E1,4.360398E1,4.318124E1,3.7855492E0,1.2635822E1,1.3853264E0,0E0,0E0,0E0,0E0,0E0,0E0,0E0,0E0,0E0,0E0,0E0,0E0,0E0,0E0,0E0,0E0],"parents":[2147483647,0,0,1,1,2,2,3,3,4,4,5,5,6,6,7,7,8,8,9,9,10,10,11,11,12,12,13,13,14,14],"right_children":[2,4,6,8,10,12,14,16,18,20,22,24,26,28,30,-1,-1,-1,-1,-1,-1,-1,-1,-1,-1,-1,-1,-1,-1,-1,-1],"split_conditions":[1.7E1,1.5E1,2E0,1.4E1,3E0,2.1E1,2.3E1,3E0,7E0,1.6E1,4E0,2E1,2.2E1,4E0,7E0,-2.216314E-2,4.2265966E-3,-6.823268E-2,-3.7063998E-3,9.997096E-2,2.0306586E-1,-5.042684E-2,4.287464E-2,-4.1724138E-2,-2.0592128E-1,9.287584E-3,-2.8081466E-2,-1.3607855E-2,8.643223E-3,-4.8809208E-2,-1.9642914E-2],"split_indices":[1,1,0,1,0,1,1,1,0,1,0,1,1,0,0,0,0,0,0,0,0,0,0,0,0,0,0,0,0,0,0],"split_type":[0,0,0,0,0,0,0,0,0,0,0,0,0,0,0,0,0,0,0,0,0,0,0,0,0,0,0,0,0,0,0],"sum_hessian":[3.887E3,2.501E3,1.386E3,2.088E3,4.13E2,2.38E2,1.148E3,1.997E3,9.1E1,1.06E2,3.07E2,1.26E2,1.12E2,1.057E3,9.1E1,3.99E2,1.598E3,6.8E1,2.3E1,8.2E1,2.4E1,6.2E1,2.45E2,1.08E2,1.8E1,4.4E1,6.8E1,4.28E2,6.29E2,6.7E1,2.4E1],"tree_param":{"num_deleted":"0","num_feature":"2","num_nodes":"31","size_leaf_vector":"1"}},{"base_weights":[-8.267707E-4,2.813271E-2,-1.8720686E-1,-8.0685625E-3,2.627349E-1,-3.7465277E-1,-6.8083085E-2,4.3747295E-2,-2.1164224E-1,7.5629973E-1,-6.0039006E-2,-1.9987038E-1,-9.348904E-1,1.4426519E-1,-4.4971794E-1,-3.9216797E-3,2.9763086E-2,-8.897888E-2,-7.4367085E-4,-3.369127E-2,9.046715E-2,-5.3758215E-2,1.8168634E-2,-7.877598E-3,-3.6380555E-2,-1.3259627E-1,-4.5216125E-2,2.515468E-2,-7.997256E-5,-6.189217E-2,-2.0917978E-2],"categories":[],"categories_nodes":[],"categories_segments":[],"categories_sizes":[],"default_left":[0,0,0,0,0,0,0,0,0,0,0,0,0,0,0,0,0,0,0,0,0,0,0,0,0,0,0,0,0,0,0],"id":46,"left_children":[1,3,5,7,9,11,13,15,17,19,21,23,25,27,29,-1,-1,-1,-1,-1,-1,-1,-1,-1,-1,-1,-1,-1,-1,-1,-1],"loss_changes":[2.0990633E1,2.8589212E1,1.16527E1,3.077878E1,7.1734825E1,1.9690838E1,2.6078558E1,4.9004715E1,8.19743E1,2.9176735E1,3.1611233E1,3.0681949E0,8.461987E0,3.2217002E0,4.551031E0,0E0,0E0,0E0,0E0,0E0,0E0,0E0,0E0,0E0,0E0,0E0,0E0,0E0,0E0,0E0,0E0],"parents":[2147483647,0,0,1,1,2,2,3,3,4,4,5,5,6,6,7,7,8,8,9,9,10,10,11,11,12,12,13,13,14,14],"right_children":[2,4,6,8,10,12,14,16,18,20,22,24,26,28,30,-1,-1,-1,-1,-1,-1,-1,-1,-1,-1,-1,-1,-1,-1,-1,-1],"split_conditions":[7E0,6E0,9E0,5E0,1.2E1,5E0,2E1,4E0,8E0,2E0,1.7E1,3E0,7E0,1.6E1,2.2E1,-3.9216797E-3,2.9763086E-2,-8.897888E-2,-7.4367085E-4,-3.369127E-2,9.046715E-2,-5.3758215E-2,1.8168634E-2,-7.877598E-3,-3.6380555E-2,-1.3259627E-1,-4.5216125E-2,2.515468E-2,-7.997256E-5,-6.189217E-2,-2.0917978E-2],"split_indices":[0,0,1,0,1,1,1,0,1,1,1,1,1,1,1,0,0,0,0,0,0,0,0,0,0,0,0,0,0,0,0],"split_type":[0,0,0,0,0,0,0,0,0,0,0,0,0,0,0,0,0,0,0,0,0,0,0,0,0,0,0,0,0,0,0],"sum_hessian":[3.887E3,3.365E3,5.22E2,2.916E3,4.49E2,2.02E2,3.2E2,2.325E3,5.91E2,1.77E2,2.72E2,1.55E2,4.7E1,2.06E2,1.14E2,1.753E3,5.72E2,1.36E2,4.55E2,2.1E1,1.56E2,9.1E1,1.81E2,9E1,6.5E1,2.5E1,2.2E1,1.18E2,8.8E1,6.6E1,4.8E1],"tree_param":{"num_deleted":"0","num_feature":"2","num_nodes":"31","size_leaf_vector":"1"}},{"base_weights":[-8.269981E-4,5.0715167E-2,-9.3802966E-2,-2.9036773E-2,4.5301247E-1,-3.7302995E-1,-3.564017E-2,-9.034644E-3,-4.6311525E-1,1.1316521E0,2.1578051E-1,-5.97618E-1,-1.173157E-1,4.905537E-2,-1.6635223E-1,-4.065514E-3,2.9922877E-2,-5.9744578E-2,-5.761846E-3,7.6671794E-2,1.678176E-1,-4.5078304E-2,3.8560864E-2,-3.7201483E-2,-1.8604143E-1,8.76293E-3,-2.4927525E-2,-3.140021E-2,1.3587045E-2,8.535074E-3,-2.309134E-2],"categories":[],"categories_nodes":[],"categories_segments":[],"categories_sizes":[],"default_left":[0,0,0,0,0,0,0,0,0,0,0,0,0,0,0,0,0,0,0,0,0,0,0,0,0,0,0,0,0,0,0],"id":47,"left_children":[1,3,5,7,9,11,13,15,17,19,21,23,25,27,29,-1,-1,-1,-1,-1,-1,-1,-1,-1,-1,-1,-1,-1,-1,-1,-1],"loss_changes":[1.8636763E1,8.028731E1,2.2512447E1,1.8133545E1,6.6407745E1,1.365575E1,1.2728427E1,1.9487555E1,4.9768734E0,2.005394E1,3.503981E1,3.5489037E1,3.0778666E0,2.204283E1,7.3648148E0,0E0,0E0,0E0,0E0,0E0,0E0,0E0,0E0,0E0,0E0,0E0,0E0,0E0,0E0,0E0,0E0],"parents":[2147483647,0,0,1,1,2,2,3,3,4,4,5,5,6,6,7,7,8,8,9,9,10,10,11,11,12,12,13,13,14,14],"right_children":[2,4,6,8,10,12,14,16,18,20,22,24,26,28,30,-1,-1,-1,-1,-1,-1,-1,-1,-1,-1,-1,-1,-1,-1,-1,-1],"split_conditions":[1.7E1,1.5E1,2E0,1.4E1,3E0,2.1E1,2.1E1,1.3E1,7E0,2E0,4E0,2E1,2.2E1,3E0,3E0,-4.065514E-3,2.9922877E-2,-5.9744578E-2,-5.761846E-3,7.6671794E-2,1.678176E-1,-4.5078304E-2,3.8560864E-2,-3.7201483E-2,-1.8604143E-1,8.76293E-3,-2.4927525E-2,-3.140021E-2,1.3587045E-2,8.535074E-3,-2.309134E-2],"split_indices":[1,1,0,1,0,1,1,1,0,0,0,1,1,0,0,0,0,0,0,0,0,0,0,0,0,0,0,0,0,0,0],"split_type":[0,0,0,0,0,0,0,0,0,0,0,0,0,0,0,0,0,0,0,0,0,0,0,0,0,0,0,0,0,0,0],"sum_hessian":[3.887E3,2.501E3,1.386E3,2.088E3,4.13E2,2.38E2,1.148E3,1.997E3,9.1E1,1.06E2,3.07E2,1.26E2,1.12E2,6.97E2,4.51E2,1.812E3,1.85E2,6.8E1,2.3E1,6.5E1,4.1E1,6.2E1,2.45E2,1.08E2,1.8E1,4.4E1,6.8E1,1.34E2,5.63E2,9.2E1,3.59E2],"tree_param":{"num_deleted":"0","num_feature":"2","num_nodes":"31","size_leaf_vector":"1"}},{"base_weights":[-7.6297176E-4,2.5453085E-2,-1.6948666E-1,-6.985906E-3,2.3567328E-1,-3.2145494E-1,-5.2765153E-2,3.9936498E-2,-1.9133477E-1,6.8503183E-1,-5.8178343E-2,-1.3111526E-1,-5.9429795E-1,1.6319911E-1,-3.959712E-1,1.11341765E-2,-2.1582358E-2,-3.2422658E-2,7.432892E-2,4.531669E-2,1.3216518E-1,-4.9669456E-2,1.6380886E-2,-6.6963844E-3,-2.5793E-2,-8.688039E-2,-3.0714735E-2,6.7401096E-2,8.555735E-3,-5.581988E-2,-1.6606873E-2],"categories":[],"categories_nodes":[],"categories_segments":[],"categories_sizes":[],"default_left":[0,0,0,0,0,0,0,0,0,0,0,0,0,0,0,0,0,0,0,0,0,0,0,0,0,0,0,0,0,0,0],"id":48,"left_children":[1,3,5,7,9,11,13,15,17,19,21,23,25,27,29,-1,-1,-1,-1,-1,-1,-1,-1,-1,-1,-1,-1,-1,-1,-1,-1],"loss_changes":[1.7201986E1,2.2955517E1,9.259995E0,2.523996E1,5.9459984E1,1.17108345E1,2.2078335E1,4.2502876E1,7.376967E1,2.5675621E1,2.6656546E1,1.0809999E0,7.0638313E0,7.2001734E0,4.1964016E0,0E0,0E0,0E0,0E0,0E0,0E0,0E0,0E0,0E0,0E0,0E0,0E0,0E0,0E0,0E0,0E0],"parents":[2147483647,0,0,1,1,2,2,3,3,4,4,5,5,6,6,7,7,8,8,9,9,10,10,11,11,12,12,13,13,14,14],"right_children":[2,4,6,8,10,12,14,16,18,20,22,24,26,28,30,-1,-1,-1,-1,-1,-1,-1,-1,-1,-1,-1,-1,-1,-1,-1,-1],"split_conditions":[7E0,6E0,1E1,5E0,1.2E1,4E0,2E1,2E1,2E1,1.1E1,1.7E1,3E0,7E0,1.2E1,2.2E1,1.11341765E-2,-2.1582358E-2,-3.2422658E-2,7.432892E-2,4.531669E-2,1.3216518E-1,-4.9669456E-2,1.6380886E-2,-6.6963844E-3,-2.5793E-2,-8.688039E-2,-3.0714735E-2,6.7401096E-2,8.555735E-3,-5.581988E-2,-1.6606873E-2],"split_indices":[0,0,1,0,1,1,1,1,1,1,1,1,1,1,1,0,0,0,0,0,0,0,0,0,0,0,0,0,0,0,0],"split_type":[0,0,0,0,0,0,0,0,0,0,0,0,0,0,0,0,0,0,0,0,0,0,0,0,0,0,0,0,0,0,0],"sum_hessian":[3.887E3,3.365E3,5.22E2,2.916E3,4.49E2,2.26E2,2.96E2,2.325E3,5.91E2,1.77E2,2.72E2,1.34E2,9.2E1,1.82E2,1.14E2,1.818E3,5.07E2,5.18E2,7.3E1,1.31E2,4.6E1,9.1E1,1.81E2,9E1,4.4E1,4.6E1,4.6E1,2.3E1,1.59E2,6.6E1,4.8E1],"tree_param":{"num_deleted":"0","num_feature":"2","num_nodes":"31","size_leaf_vector":"1"}},{"base_weights":[-6.794814E-4,1.0558549E-2,-3.6620027E-1,-1.8925752E-1,3.4244344E-2,-4.2929038E-1,-1.1938067E-2,-2.8464976E-1,-3.1744838E-2,6.304413E-2,-1.7469065E-1,-3.5211753E-2,-5.0206836E-2,-1.8684447E-2,-3.6454063E-2,2.0089438E-2,-1.16623975E-2,2.3715405E-3,3.2663822E-2,-4.9512412E-2,-5.218671E-3],"categories":[],"categories_nodes":[],"categories_segments":[],"categories_sizes":[],"default_left":[0,0,0,0,0,0,0,0,0,0,0,0,0,0,0,0,0,0,0,0,0],"id":49,"left_children":[1,3,5,7,9,11,-1,13,15,17,19,-1,-1,-1,-1,-1,-1,-1,-1,-1,-1],"loss_changes":[1.5974737E1,1.7863342E1,1.7550869E0,6.0011606E0,2.0313328E1,3.3992958E-1,0E0,1.8775101E0,3.024854E0,3.074024E1,1.6029196E1,0E0,0E0,0E0,0E0,0E0,0E0,0E0,0E0,0E0,0E0],"parents":[2147483647,0,0,1,1,2,2,3,3,4,4,5,5,7,7,8,8,9,9,10,10],"right_children":[2,4,6,8,10,12,-1,14,16,18,20,-1,-1,-1,-1,-1,-1,-1,-1,-1,-1],"split_conditions":[2.3E1,3E0,7E0,5E0,7E0,5E0,-1.1938067E-2,2E0,6E0,6E0,9E0,-3.5211753E-2,-5.0206836E-2,-1.8684447E-2,-3.6454063E-2,2.0089438E-2,-1.16623975E-2,2.3715405E-3,3.2663822E-2,-4.9512412E-2,-5.218671E-3],"split_indices":[1,1,0,0,0,0,0,0,0,0,1,0,0,0,0,0,0,0,0,0,0],"split_type":[0,0,0,0,0,0,0,0,0,0,0,0,0,0,0,0,0,0,0,0,0],"sum_hessian":[3.887E3,3.772E3,1.15E2,3.99E2,3.373E3,9.1E1,2.4E1,2.48E2,1.51E2,2.965E3,4.08E2,4.7E1,4.4E1,1.13E2,1.35E2,4E1,1.11E2,2.581E3,3.84E2,1.12E2,2.96E2],"tree_param":{"num_deleted":"0","num_feature":"2","num_nodes":"21","size_leaf_vector":"1"}}]},"name":"gbtree"},"learner_model_param":{"base_score":"[1.3643169E1]","boost_from_average":"1","num_class":"0","num_feature":"2","num_target":"1"},"objective":{"name":"reg:squarederror","reg_loss_param":{"scale_pos_weight":"1"}}},"version":[3,2,1]}